sequential/dense/kernel:0
(784, 128)
[[-1.97529905e-02 -5.87006547e-02 -8.08051080e-02 -5.56249544e-02
  -5.87448999e-02  1.65385604e-02 -4.39405218e-02 -4.64192480e-02
  -7.63417482e-02 -8.43086094e-03  5.60286418e-02  4.31861579e-02
   2.73566768e-02  2.89681926e-02  1.74443275e-02 -7.70040080e-02
   2.20887065e-02 -3.78462709e-02 -2.96839327e-03 -7.35021383e-03
  -6.34479523e-02  1.06193349e-02 -4.14119624e-02  3.46908048e-02
   6.87747821e-02  1.56601965e-02 -5.55734001e-02 -4.89114337e-02
   4.80450764e-02 -5.88439517e-02  1.46992505e-03 -2.92267650e-03
  -2.80760974e-03  5.67756221e-02  6.28880784e-02  5.64690754e-02
   2.73310542e-02  7.46186450e-02  3.85175422e-02  9.24459845e-03
   2.52913088e-02  7.40945563e-02  5.43408915e-02  5.57994843e-03
  -2.17754468e-02 -7.03625008e-02 -5.69906086e-02 -8.09928402e-02
   3.53355184e-02 -1.98826715e-02 -5.80363274e-02  5.78415915e-02
   3.29248682e-02  4.58003208e-02 -2.72822231e-02  4.42055389e-02
   5.87325469e-02  4.16404679e-02  7.97226951e-02  2.91688293e-02
  -6.39456287e-02 -4.37424220e-02  7.14503899e-02  6.41843155e-02
   4.95257974e-03 -4.15625311e-02 -7.57245123e-02 -1.54249817e-02
   7.84598961e-02  7.75064304e-02  1.66109055e-02 -7.88576901e-03
   5.42622805e-03  2.54325122e-02  6.03627637e-02  2.20114365e-02
  -4.24582437e-02  1.69292539e-02 -7.51869604e-02  7.09578916e-02
   3.03784013e-02  6.81310222e-02  4.52714041e-02 -2.15044208e-02
   7.97710344e-02  1.91891640e-02  2.51931697e-03  4.80952039e-02
   6.79138675e-02 -7.69065619e-02 -7.19559193e-02 -1.13463774e-02
   2.97440439e-02  7.68865868e-02  6.25275746e-02  5.45889065e-02
   3.91668677e-02 -4.21141572e-02  8.02648738e-02 -7.44354576e-02
  -2.47387923e-02 -2.07529925e-02  2.80854777e-02 -6.63344488e-02
   2.54214928e-02 -7.66361505e-03 -5.29524982e-02  3.80049795e-02
  -1.04380399e-03 -2.09155902e-02  2.93040425e-02  4.08962891e-02
  -2.73539275e-02  2.38117129e-02 -2.07552575e-02  2.29592994e-02
   3.00816521e-02 -1.33252144e-03 -7.88444951e-02 -5.43192029e-04
   4.56322804e-02  4.02543545e-02 -5.76589592e-02  5.48000112e-02
  -9.21230018e-03 -8.27538222e-03  5.61977252e-02 -4.60030325e-02]
 [-6.69027865e-03 -4.54945862e-02  3.61423120e-02 -4.83822227e-02
   2.65637636e-02 -4.89274077e-02  6.87465146e-02  4.83547226e-02
   1.62925571e-02 -7.34155923e-02  1.75085515e-02 -3.97652388e-04
   4.53603342e-02 -7.70746917e-03  2.67966986e-02  5.14565483e-02
   5.73497638e-02 -7.59947598e-02 -5.45628779e-02 -3.32810581e-02
  -3.73755582e-02 -2.30904147e-02  1.26940459e-02  7.61511698e-02
   3.75551358e-02  7.35071972e-02 -6.85457885e-03 -2.72886604e-02
  -4.95098010e-02 -3.81166600e-02 -1.68367773e-02 -6.23773709e-02
  -7.15058222e-02 -6.28167391e-02  1.00091398e-02  3.96685377e-02
   1.64152384e-02  1.72622204e-02 -6.92636222e-02 -2.04562284e-02
  -3.86193395e-03  6.41425326e-02  3.96905467e-02  3.41762453e-02
   4.22022790e-02 -4.28379700e-02 -7.85531029e-02 -7.40986988e-02
  -3.24195176e-02  4.67288122e-02  7.80195966e-02 -4.77313139e-02
  -4.21720929e-02  5.38310781e-02 -6.12124093e-02  2.60549560e-02
  -2.84393281e-02  7.33137354e-02 -1.32459849e-02 -4.80917618e-02
   1.62497982e-02  4.92122546e-02  2.62984633e-02 -5.04343212e-03
   7.57480487e-02 -1.29558519e-02 -7.77604431e-03  3.74774933e-02
   4.06941846e-02 -7.21684247e-02  6.86214492e-02 -5.71098290e-02
  -2.66508460e-02  4.73571792e-02  2.74822190e-02  5.15969619e-02
  -5.77653572e-02 -7.81883448e-02 -3.45919281e-03 -6.06115088e-02
   1.40681490e-02 -4.88125198e-02  6.02418855e-02 -4.16838601e-02
   5.39944246e-02  3.32778096e-02 -6.88426197e-03  2.56769285e-02
  -2.96054110e-02 -6.30933866e-02  4.45865914e-02  6.12436756e-02
  -2.02422477e-02  5.28058633e-02  7.75924847e-02  7.37435445e-02
  -7.46725649e-02  3.52999195e-02  3.34229618e-02  7.97728226e-02
  -6.98680431e-02  5.92746809e-02 -1.69605762e-02  2.71573514e-02
  -2.26192176e-03  7.14498535e-02  4.22712788e-02  6.26966283e-02
  -2.21605301e-02  6.35930374e-02 -3.92466336e-02 -6.19827323e-02
  -1.24716759e-03  6.38067722e-04 -3.71953249e-02  4.77848276e-02
  -1.25944614e-03  3.77823189e-02  6.82588592e-02  4.09400538e-02
   8.10888335e-02  7.79857114e-02  4.43027169e-03 -5.40237837e-02
   7.63567016e-02 -1.43343434e-02  5.28261885e-02  7.44780824e-02]
 [-1.12721622e-02  2.33117417e-02  5.69964275e-02  7.18362853e-02
  -7.64110163e-02  6.85040280e-02  3.79682556e-02 -7.67285898e-02
   1.33344531e-02  6.84075058e-03 -6.01432920e-02 -6.84171468e-02
   1.47366002e-02  1.18570626e-02 -2.73548961e-02  9.10244137e-03
   1.89221650e-03  8.71138275e-03 -3.31227556e-02 -4.57776040e-02
  -3.32545079e-02 -7.09483922e-02  2.89569572e-02 -3.76325063e-02
   2.70852968e-02  5.83789870e-02  3.77405137e-02  2.79582143e-02
   7.47239068e-02  2.33054161e-02  6.59162775e-02  7.73667917e-02
  -6.59080595e-02  7.06868693e-02  1.77597255e-03 -7.86711276e-03
   3.66979986e-02  2.46022418e-02 -6.20392784e-02  5.17510101e-02
   3.54670808e-02 -4.69839573e-03 -4.54245843e-02  2.65384093e-02
  -7.65555948e-02 -5.09533286e-02 -4.02552225e-02  8.51190835e-03
  -6.03625700e-02  4.76701632e-02 -5.18751629e-02 -4.38713692e-02
  -3.52093205e-02 -5.76552823e-02  2.33401656e-02 -5.50084114e-02
   8.01490173e-02 -4.64929678e-02 -4.30510193e-02  8.75259191e-03
  -6.07735850e-02 -6.36519939e-02  6.24326244e-02  6.48580119e-02
  -5.55081517e-02 -2.94257700e-03  3.86479795e-02 -2.36234814e-03
   2.49719545e-02 -2.95270309e-02  4.31239232e-02 -1.29350051e-02
   5.93833402e-02  3.62132490e-02 -6.49310127e-02 -7.02524036e-02
  -5.87269962e-02  1.29702911e-02  1.58610046e-02 -5.41817173e-02
  -2.39652582e-02  7.27003887e-02 -7.23576918e-02  4.24884483e-02
  -4.16558199e-02 -7.29916245e-03  6.50634989e-02 -2.26921588e-02
   2.24233195e-02 -5.94243109e-02 -6.48651868e-02 -7.61259124e-02
  -6.03461713e-02 -1.15557760e-02 -6.81142285e-02 -6.72429800e-02
   6.76404461e-02  8.66267085e-03  3.63700017e-02  3.01234275e-02
  -2.15774439e-02  3.86760980e-02  2.49191374e-03  1.28920674e-02
   5.48460558e-02  7.62443244e-03  4.25600559e-02  5.39653823e-02
  -5.89590333e-02  2.23591551e-02 -3.61458212e-03 -6.19043559e-02
  -4.97359782e-03 -2.79628523e-02 -5.32935485e-02 -6.79411143e-02
  -1.18101314e-02 -1.31219104e-02 -7.74188712e-02  3.08972448e-02
   1.52105018e-02 -6.30351827e-02 -7.71780312e-02 -6.34054840e-03
  -3.87024730e-02 -5.65860495e-02 -7.64002651e-02 -2.87218615e-02]
 [ 5.55905923e-02  5.42611554e-02  3.40683013e-03  6.83910400e-03
  -7.66841322e-02 -5.74705265e-02  1.40525848e-02 -3.98076177e-02
  -1.44697502e-02  7.31588230e-02 -5.89906350e-02 -9.13646072e-03
   1.45725682e-02  4.98457476e-02  5.38448915e-02 -3.07290219e-02
  -4.83166836e-02 -5.64630590e-02  7.91095421e-02 -3.40062641e-02
  -5.26588112e-02 -7.56464154e-03  5.22618964e-02 -2.23910809e-02
  -4.59542610e-02  2.63247043e-02 -1.36485696e-02 -6.13872670e-02
   4.36042696e-02 -4.33537029e-02  4.40833196e-02 -6.64207190e-02
   1.13920942e-02 -1.61411539e-02 -6.91827387e-03 -1.93476006e-02
  -1.41803920e-02 -7.14448839e-02  6.08023033e-02  4.12661582e-03
   1.55340880e-02  2.26310939e-02  1.33037865e-02  4.60162535e-02
  -5.82125187e-02  3.09455171e-02 -5.33814803e-02  6.99166581e-02
  -7.16498718e-02  7.13810101e-02  5.19556627e-02  7.38818571e-02
  -1.02593377e-02 -1.62366107e-02 -7.78435245e-02  6.08666167e-02
  -7.50230327e-02  3.44416648e-02 -5.93996942e-02  7.39120468e-02
   3.35705951e-02 -4.53201756e-02 -9.18666273e-03 -7.08022118e-02
   3.38949934e-02 -1.85352787e-02 -5.99632524e-02 -7.52815828e-02
   2.15710625e-02 -7.11556822e-02  3.64892036e-02  6.65655211e-02
   3.69059443e-02  2.00780258e-02  6.43484667e-02 -4.49977070e-03
  -4.80686314e-02 -3.88695002e-02 -5.51548824e-02  2.47184113e-02
  -3.88066098e-02 -4.27466147e-02  8.18673521e-03  1.14379674e-02
  -2.84832641e-02  7.51656517e-02 -1.39323398e-02 -6.76934123e-02
   6.17539808e-02 -6.54406920e-02  3.67479548e-02 -2.86634006e-02
   4.11205143e-02  8.73124599e-03  3.83684263e-02 -3.85738760e-02
   4.40645441e-02  6.00338504e-02  2.82007307e-02 -8.05120543e-02
  -8.17650557e-03 -3.54438759e-02  2.28472129e-02 -3.99735048e-02
  -7.28688613e-02  2.53491625e-02 -5.78868985e-02  6.48440048e-02
  -5.93791194e-02  5.94228506e-04 -2.31527016e-02  4.59813550e-02
   6.49929047e-03 -6.90666437e-02  5.69145158e-02  6.03666678e-02
   5.12564704e-02  2.36074030e-02 -2.18396895e-02  3.90809253e-02
   5.55042848e-02  8.00049976e-02 -4.68417890e-02  1.41994581e-02
  -9.65797156e-03 -6.61960468e-02  7.97289535e-02  5.08199111e-02]
 [ 1.84357464e-02 -3.28832120e-03 -2.56603174e-02 -7.05007911e-02
   5.90317324e-02  4.74673584e-02 -3.65240723e-02  7.10548386e-02
  -1.55761689e-02 -6.72712922e-02 -8.09337646e-02 -5.63032478e-02
  -1.88553073e-02 -7.08192736e-02 -2.33796574e-02 -3.30251753e-02
   2.18855813e-02 -7.97305182e-02 -4.93437797e-03  4.87338826e-02
   7.86655769e-02 -4.93520387e-02  7.57294372e-02  3.48673388e-02
  -1.45948455e-02 -1.89967863e-02 -3.87066528e-02 -7.38580525e-02
   6.69285655e-05 -2.54592970e-02  5.57729080e-02  8.09529796e-02
  -4.22279239e-02  3.15167308e-02  1.28615201e-02 -6.45307675e-02
   5.74017540e-02  5.29682413e-02  3.36429402e-02 -2.31392421e-02
  -1.41186789e-02 -1.18214041e-02  5.70734963e-02 -4.52877656e-02
   6.29367605e-02  3.13763171e-02  3.59275863e-02  1.22857839e-03
   1.60051137e-02  7.40192831e-03 -4.15854901e-03  5.36601469e-02
   6.17990717e-02 -3.09851207e-02  4.55141142e-02  5.44469282e-02
  -2.05558576e-02  7.33203068e-02 -4.85794917e-02  3.03030983e-02
   4.76653352e-02  4.76629958e-02 -2.13686489e-02  9.43916291e-03
   7.27779493e-02 -5.85683808e-02 -2.45895945e-02  6.45700470e-02
   4.61153463e-02 -6.72243983e-02 -9.45838541e-03  7.88752213e-02
   6.80110529e-02  3.36694494e-02 -1.75218284e-03  5.43818548e-02
   1.32500008e-02 -2.18144059e-03  4.27146107e-02 -5.54581657e-02
   6.23819456e-02 -6.76603243e-02 -7.06213862e-02 -4.73105125e-02
   2.28773057e-02  4.63011339e-02  5.85990772e-02  2.66834497e-02
  -1.24065652e-02 -8.28108191e-03 -6.19500689e-02 -7.25891143e-02
  -6.27552196e-02 -2.12273002e-03 -1.52971596e-03  3.99201140e-02
   4.97688428e-02  3.99425402e-02  7.57309720e-02  4.79983911e-02
  -4.89488542e-02  7.90699050e-02  3.80977839e-02  3.12792584e-02
  -2.70348862e-02 -3.08409333e-03  7.66056031e-03 -1.06463358e-02
   7.99816847e-03 -3.10954638e-02  4.81614694e-02  7.70452693e-02
   5.31820953e-03 -1.50338486e-02 -6.34926558e-03 -4.33425829e-02
   7.07514584e-04 -5.82451411e-02  2.67027467e-02 -5.68947084e-02
  -6.99401349e-02 -1.14451051e-02 -7.87965506e-02 -6.20675907e-02
  -1.60385668e-02 -6.41671866e-02  6.99603632e-02 -5.88512644e-02]
 [-4.71685492e-02  4.13014069e-02 -5.75445518e-02  3.22483331e-02
   2.03750432e-02  6.74723163e-02 -3.72783430e-02 -3.97376530e-02
   3.23935598e-03 -4.09621932e-02  4.66332808e-02 -2.15249583e-02
  -6.58718571e-02 -1.75564885e-02  3.86347324e-02 -5.62823042e-02
   7.24312887e-02 -3.94971631e-02  3.36428434e-02 -6.84694350e-02
  -9.27002728e-03 -1.67359039e-02 -4.00185585e-04  7.45301768e-02
   6.63041100e-02  2.07494125e-02  5.06231263e-02 -3.33430953e-02
   1.84253603e-02  1.42035931e-02  1.94286481e-02  5.77202365e-02
   5.15997633e-02 -4.51861806e-02  1.07046962e-03  3.00177410e-02
   1.45138055e-03  1.81387812e-02 -2.21351013e-02 -2.52704024e-02
  -5.56762815e-02  3.98486853e-03 -3.09124067e-02  6.61251694e-03
  -3.65615711e-02 -5.32767847e-02  1.97673216e-02 -7.26107880e-02
   2.35367417e-02 -6.25055805e-02 -4.00304161e-02  6.73060119e-03
  -4.98885401e-02 -7.84061924e-02 -1.98564678e-02  1.19185820e-02
   1.38285458e-02  2.49032453e-02  4.84755710e-02 -2.90244296e-02
  -4.25229892e-02  5.09338081e-03  7.83749744e-02  7.72792175e-02
  -6.12664968e-02 -3.43086012e-02  7.27541223e-02 -4.78997715e-02
   2.38044634e-02  3.24401110e-02  7.37079307e-02  7.31968060e-02
  -3.54971327e-02  3.68550643e-02  5.73411509e-02 -2.79885344e-02
   7.68418610e-03  7.85067305e-02 -6.40789270e-02 -3.07871327e-02
   2.65804157e-02 -3.74999046e-02  1.08990818e-03 -2.75897011e-02
  -3.71591039e-02  4.45100144e-02 -4.34740633e-02  6.54584169e-03
  -3.76664847e-02 -4.67414409e-03 -2.59110592e-02  1.60514265e-02
   5.91675565e-02 -2.32153200e-02 -3.16798463e-02  4.09764647e-02
   1.50386393e-02 -7.72323534e-02 -8.01448971e-02  1.28749013e-02
  -2.52462067e-02 -5.87344579e-02  7.47717172e-03  3.71016115e-02
   4.54935059e-02  7.81977177e-03 -7.46866614e-02  7.55217299e-02
  -7.32870921e-02 -5.46457991e-02 -2.37228535e-02  1.08943880e-03
  -7.19900876e-02  2.32977793e-02 -5.40843308e-02 -7.30213597e-02
   6.86891451e-02  5.41513041e-02 -5.54856621e-02  4.54439595e-02
   6.51105866e-02 -6.98911101e-02 -1.49819404e-02  7.90056512e-02
  -3.43968607e-02  2.96215937e-02 -6.16829470e-02  5.93944639e-03]
 [ 4.33189124e-02  2.48353109e-02 -7.05240518e-02 -3.03541496e-02
  -1.15798712e-02 -3.93106267e-02 -6.10971339e-02 -5.08429408e-02
  -5.25791943e-02 -6.09087422e-02  4.89235744e-02  5.71572855e-02
   6.33907542e-02  5.77799901e-02  5.83968312e-03 -5.34936041e-03
  -4.54373285e-02 -7.15473741e-02  7.30623975e-02 -6.86528981e-02
  -6.13951012e-02  5.03513440e-02 -5.07096238e-02  5.02743796e-02
  -1.34688765e-02 -2.94706412e-02 -5.65070510e-02 -4.03308757e-02
   7.94218406e-02  6.98865429e-02  5.74746653e-02 -4.54888828e-02
   7.84504488e-02  1.82899535e-02 -1.12178028e-02  1.24607906e-02
  -4.69192006e-02  3.68842855e-02 -1.58807263e-02 -3.37578841e-02
  -4.42532450e-02  9.03067738e-03 -9.50208306e-03  1.66815445e-02
  -2.20063478e-02 -8.00923184e-02  6.16634414e-02 -1.71684101e-02
  -3.20457667e-02 -2.92676650e-02 -5.32498434e-02  1.87760592e-02
  -4.90415208e-02 -2.03494616e-02  6.39618114e-02 -2.17210874e-02
  -2.93604322e-02  1.93391144e-02 -7.98077360e-02 -3.61651182e-03
   4.99874353e-04  5.97247705e-02  3.20378020e-02 -1.13855600e-02
  -2.01168992e-02 -2.42509060e-02 -4.86314744e-02 -1.23449489e-02
   7.35028461e-02  2.29781717e-02 -2.55942792e-02 -1.67202055e-02
  -6.79854602e-02 -5.20165078e-02  5.53935543e-02  3.43768820e-02
   5.68743125e-02 -6.27067685e-03  2.40320712e-03  3.67152095e-02
   4.38201427e-02 -1.58081502e-02 -5.02671078e-02 -6.42718822e-02
  -4.55251224e-02  5.01586422e-02 -7.23318011e-02  6.59889057e-02
   5.82334399e-03 -2.87348777e-02 -4.52490896e-03  7.69745186e-02
  -5.72322011e-02  3.64928022e-02  3.72772813e-02  3.24164033e-02
   2.08304822e-02  1.35186315e-02 -4.09877002e-02 -3.54370661e-02
   6.49579689e-02 -6.85302764e-02  2.55848393e-02  6.86214343e-02
  -6.86745346e-03 -4.45059575e-02 -3.23928893e-02  7.20838830e-02
  -1.19327009e-02  3.22296396e-02  6.11534044e-02  5.51180542e-03
   5.55433333e-04 -3.54092792e-02  1.38056278e-03  2.75752768e-02
   1.98190659e-02 -2.85104364e-02  6.14060089e-02 -5.53983115e-02
   3.08686867e-02 -5.73087037e-02  5.24604544e-02 -3.05746458e-02
   4.29435596e-02 -3.09459604e-02  5.96853271e-02 -4.69539352e-02]
 [-2.73809247e-02 -7.29518011e-02  3.37056294e-02 -1.18232071e-02
   2.97995880e-02  2.43638977e-02 -4.58095334e-02 -2.24224105e-02
   4.54695001e-02  7.89825544e-02 -1.59785375e-02  6.20893016e-02
  -6.73926994e-02  1.64031908e-02 -2.49902271e-02  1.00478679e-02
  -6.11892045e-02 -6.82660714e-02 -3.30731273e-03 -5.87864369e-02
  -2.18127705e-02 -4.88751158e-02 -3.66268568e-02 -7.00515807e-02
   5.63613251e-02 -6.58051223e-02  7.30720237e-02 -3.69357318e-03
  -2.75851376e-02 -3.26371901e-02 -6.51666671e-02 -5.74560985e-02
   2.21079513e-02 -3.27607617e-02 -1.39696151e-03 -5.74291237e-02
   6.59328327e-02 -2.68988200e-02 -1.24040470e-02  2.67491639e-02
   3.66614163e-02 -6.57787621e-02 -3.70674022e-02  6.39692768e-02
   6.25112280e-02  6.16502762e-03 -2.49603316e-02  1.31938085e-02
   3.67550477e-02 -3.93365398e-02  1.96778253e-02  2.52316818e-02
  -1.08891055e-02 -5.87537773e-02 -5.22979349e-03  2.97151506e-04
   3.58961225e-02 -5.75362742e-02 -3.81904095e-03 -1.21486112e-02
  -1.96695253e-02 -4.47656326e-02 -1.41248107e-02 -5.96198626e-02
  -2.83281542e-02 -2.04391517e-02  2.99883857e-02 -1.08795613e-03
  -5.52886426e-02 -1.68808624e-02 -3.37826945e-02 -1.71652958e-02
   3.33113968e-03  1.04155913e-02 -6.99985772e-02  1.81824714e-02
   3.99003848e-02  6.51805103e-03 -3.92147452e-02  4.00893614e-02
   3.21518928e-02  7.46563151e-02  7.98635110e-02 -9.64999199e-05
  -1.69256181e-02  5.68214133e-02  1.91530213e-02  5.30181304e-02
   2.64286995e-03 -4.09290940e-03 -7.44905323e-03  5.82785830e-02
   5.01117781e-02 -3.34639810e-02 -2.18046308e-02  5.81735447e-02
   4.46802750e-02 -5.20790853e-02  4.02302220e-02  1.69841871e-02
   7.99789503e-02  1.11498609e-02  3.82057503e-02 -7.87607357e-02
   7.24296495e-02  1.52003020e-03 -4.56828661e-02 -7.05209374e-02
  -1.70414522e-02 -1.34930462e-02  1.62392184e-02  3.45084220e-02
  -2.28788927e-02  6.13999292e-02  5.41105196e-02 -5.81755638e-02
  -3.31664607e-02  7.22587183e-02 -3.04011032e-02  2.18810365e-02
  -5.94681539e-02 -2.17212029e-02 -4.70648184e-02 -2.20466293e-02
  -4.00732458e-03  4.04190943e-02 -1.23718157e-02  7.47397766e-02]
 [ 7.58111253e-02 -7.47383162e-02 -4.65950333e-02 -4.87056151e-02
  -7.50094205e-02 -2.14759558e-02 -1.89330466e-02 -3.60204838e-02
  -4.16926965e-02 -1.20867267e-02 -6.57887012e-03 -1.78468898e-02
  -4.01320569e-02 -7.14575350e-02 -2.94281170e-02  7.89260343e-02
  -4.88406159e-02  5.62476441e-02  4.82334197e-03 -3.08353826e-02
   1.48632824e-02 -3.83344479e-02 -3.60131152e-02  2.22098082e-03
   3.46530750e-02 -4.32294942e-02  3.93465757e-02 -1.86174847e-02
   3.96375358e-03  3.56280804e-03 -6.18232116e-02  3.71417776e-02
  -6.31567612e-02  4.62144613e-04  3.90956551e-03 -3.10451277e-02
  -4.62071672e-02  1.85283348e-02  7.05205724e-02  2.95389444e-02
  -7.17632696e-02 -5.51491566e-02  6.05439171e-02  3.56256962e-02
  -3.55893932e-02  1.77163184e-02  8.09019804e-03 -5.08828983e-02
  -1.40822083e-02 -2.37543173e-02  3.23924273e-02 -4.19303849e-02
  -1.86219513e-02 -2.83035375e-02 -3.00838016e-02 -5.87069988e-03
  -6.81547076e-02  6.93882778e-02 -7.42025226e-02 -2.32202895e-02
   7.62891695e-02 -3.27217951e-02  5.71405962e-02 -4.16095443e-02
   7.62265250e-02 -7.87518770e-02 -7.33920932e-02  1.40463188e-02
   7.89279416e-02  5.47008589e-02 -3.30259651e-03  4.69669327e-02
   4.02971879e-02 -6.25479147e-02  6.81332499e-03 -1.77363306e-03
  -9.85897332e-03 -2.75639407e-02  6.33382574e-02  6.48878142e-02
   5.41243628e-02 -9.71064717e-03 -7.99769461e-02 -4.91100363e-02
   3.54306698e-02  4.19039875e-02  2.51208395e-02 -3.97016667e-02
   6.61137700e-03  3.94470543e-02  7.31473938e-02 -5.85209243e-02
   1.06381178e-02 -5.38785532e-02  6.57176971e-03  3.92067581e-02
  -5.65314963e-02  2.54022330e-02 -7.86871463e-03  3.22742686e-02
  -1.05173662e-02 -5.22176065e-02 -4.30276394e-02  3.86384875e-02
   5.35984561e-02 -6.59675598e-02 -2.50601731e-02  7.03452751e-02
   7.82816336e-02  5.32989129e-02 -7.73835778e-02  1.50788650e-02
   7.85517320e-02 -1.10508874e-02  5.19008934e-03  3.32013294e-02
   7.32783750e-02  5.66140786e-02  2.60060653e-02  6.09585568e-02
   4.18977439e-02 -4.72012721e-02  5.24590388e-02 -4.72583584e-02
  -1.25485286e-02 -1.66886449e-02 -6.49543926e-02 -9.87494737e-03]
 [ 4.40259948e-02 -7.65738636e-03  4.88896146e-02 -6.28456250e-02
   6.17479458e-02  3.13182622e-02 -4.43912037e-02  3.06894556e-02
  -1.20282471e-02 -3.54656689e-02 -6.33922443e-02 -1.08689591e-02
  -8.93203169e-03  4.20905426e-02  3.06467786e-02  3.56547609e-02
   7.28701130e-02  5.85457757e-02 -2.87186131e-02 -3.87850292e-02
  -2.74380483e-02 -5.05406484e-02 -2.53126770e-03 -1.32441446e-02
   7.38015398e-02  5.69176450e-02 -7.87483454e-02  2.97691077e-02
  -3.42545286e-02  4.38294262e-02 -6.29660040e-02 -3.43442410e-02
  -4.24104184e-02  5.75025901e-02 -7.70138875e-02 -5.32332733e-02
  -3.50419842e-02  1.56578124e-02 -4.36479747e-02  4.26498055e-02
  -4.69054542e-02 -2.48614550e-02  5.41956946e-02  7.16677830e-02
   3.36451009e-02 -6.96702898e-02  8.04652795e-02 -2.63844617e-02
  -1.56069398e-02 -2.39606574e-02 -4.12546843e-02 -3.73578444e-02
   1.78264081e-03 -2.01210193e-02  7.62820244e-04 -5.89579120e-02
  -1.28855929e-02  1.09893978e-02 -2.69985944e-03  1.28590316e-03
  -4.71277088e-02  6.86382279e-02 -3.91128324e-02  3.53668630e-03
  -1.50679797e-03 -5.70921898e-02 -2.87885964e-02 -7.46269077e-02
  -1.10530108e-03  9.27850604e-04 -3.01391073e-02 -2.84536406e-02
  -3.02609392e-02  3.71287465e-02 -5.96366674e-02  7.45733082e-03
   7.98221007e-02  2.26907507e-02 -5.53094596e-03  5.32882139e-02
  -3.15513052e-02  1.67456716e-02 -4.33487706e-02  3.30696553e-02
  -3.69001627e-02  3.45182270e-02  3.05087790e-02 -2.90592387e-02
   7.70223662e-02 -6.97322190e-04  3.04016843e-02  1.54652223e-02
   9.16786492e-04 -2.42747702e-02  5.10889515e-02 -3.85988615e-02
   7.58428350e-02  4.54692617e-02 -1.55035555e-02 -8.79155844e-03
   6.99623153e-02  1.75373256e-03 -1.62449479e-03  9.06656682e-03
  -4.26051356e-02 -2.80248113e-02  7.33846501e-02 -3.17704864e-02
   7.73029029e-03 -3.14331092e-02  3.37048173e-02  2.88424194e-02
   2.15730891e-02 -9.21692699e-03  4.79947850e-02  3.05979475e-02
  -6.39336556e-02  7.14304373e-02  5.09202704e-02  2.74480060e-02
  -2.44381391e-02  3.26433778e-02 -2.98313387e-02  2.03650445e-02
  -4.78012599e-02 -7.30594993e-03 -2.81763859e-02  7.62128159e-02]
 [-2.18872800e-02  8.17082822e-04 -7.02719241e-02 -1.78291798e-02
   2.21715719e-02  3.04257423e-02  2.15903223e-02  1.02198869e-02
   6.33236095e-02 -1.17421150e-04  5.33453450e-02  1.30989328e-02
   5.40990308e-02  6.26829341e-02 -9.94630158e-04 -4.00120243e-02
   1.77034363e-02  1.18132457e-02 -2.38101259e-02 -8.02243948e-02
  -3.10149789e-03 -7.10989386e-02 -3.12844589e-02 -4.27703261e-02
  -5.20139746e-02 -6.89898878e-02  1.37367472e-02  5.95378801e-02
   4.44733575e-02 -7.51810446e-02 -4.09010649e-02  2.46353447e-04
  -4.53827158e-02  2.89091542e-02 -6.36684895e-02  4.92880419e-02
  -5.10200821e-02  6.25445023e-02 -5.16762510e-02 -5.40778935e-02
  -1.20720714e-02  2.35731751e-02 -4.57265116e-02 -3.91281508e-02
  -4.65054810e-03  6.21545091e-02 -6.06924035e-02 -4.47241515e-02
  -7.96654820e-02 -3.41343023e-02 -5.26924953e-02 -2.25216560e-02
  -2.32393779e-02 -7.17598200e-03 -4.97781374e-02 -3.80822383e-02
   6.46089092e-02 -9.92885977e-03  7.03328326e-02 -6.23354018e-02
  -2.81735808e-02 -7.01471120e-02 -4.50068191e-02  7.64821097e-02
   1.51605904e-02 -3.51545215e-03  1.78438425e-03  6.07254729e-02
   3.49568203e-02 -5.65026067e-02  6.96980581e-02 -6.25982285e-02
  -2.32018530e-04  3.72859463e-02 -6.64393753e-02  7.58123770e-02
   1.74686164e-02 -6.33383244e-02 -2.85611413e-02 -5.20047881e-02
  -5.90448380e-02  4.85738888e-02 -3.70702446e-02  2.26441994e-02
  -1.76091269e-02 -6.68134615e-02  3.16778943e-02 -6.55253381e-02
  -4.53259572e-02  3.88394892e-02 -6.89130351e-02  1.36865303e-02
  -2.04538479e-02  6.11807182e-02 -1.19835585e-02  5.43438569e-02
  -3.29883918e-02  5.23125306e-02  7.78049454e-02  1.25327706e-03
  -3.18336263e-02  7.53128305e-02  3.37263271e-02 -7.98223168e-02
   3.76363844e-03 -7.65920803e-02 -4.33791913e-02 -7.33351856e-02
  -3.46732438e-02  5.47173098e-02  3.31360623e-02 -1.66351125e-02
  -1.97224170e-02 -4.59847599e-03  2.99888477e-02  5.62727526e-02
  -4.29030061e-02 -3.33218277e-03  5.33343181e-02 -5.30783907e-02
  -5.56763560e-02 -2.40340643e-02  6.22042194e-02  5.40251359e-02
  -4.72506806e-02 -7.08367154e-02  3.78708914e-02 -4.55700643e-02]
 [ 7.77183101e-02 -3.04800794e-02 -7.74153322e-02  1.34460926e-02
   2.59237811e-02 -6.39389381e-02 -4.72533107e-02  5.41245937e-03
  -2.18875706e-02 -6.62290528e-02  7.56665692e-02 -4.44515757e-02
  -4.17826027e-02 -7.71492794e-02 -1.82766840e-02 -6.42933846e-02
   3.84743586e-02 -1.85149312e-02 -3.10241841e-02 -2.75845975e-02
  -1.18753985e-02  6.99792281e-02 -4.32896949e-02  4.30366322e-02
   1.97783634e-02  4.67740223e-02  4.61470857e-02 -3.74300927e-02
   2.17600167e-02 -4.95878868e-02 -5.26775122e-02  3.50202471e-02
  -1.13289729e-02  2.99207568e-02  3.75118181e-02  2.55921707e-02
  -5.80962747e-02  2.49301046e-02 -2.78423540e-02 -7.65968785e-02
  -3.41184661e-02 -3.79147679e-02  4.83332351e-02 -2.33800448e-02
  -7.36241564e-02  7.35917464e-02 -6.35642558e-02  4.31132540e-02
  -4.19057161e-03  2.42706910e-02 -4.83342819e-02  1.72767043e-02
  -1.28076002e-02 -4.54404987e-02  7.96695724e-02 -2.90453918e-02
   1.29920319e-02  7.90777281e-02 -4.73638847e-02  1.96855739e-02
   5.04544601e-02  1.16990879e-02 -2.40425915e-02  5.18921837e-02
   3.88687998e-02  7.60643855e-02 -6.48486689e-02  3.20178270e-03
  -2.05795877e-02 -7.12989420e-02  5.90615645e-02  2.36408189e-02
   1.16167516e-02 -5.49830198e-02 -3.80117111e-02  1.61816105e-02
  -6.16336167e-02 -3.56357880e-02  5.28731570e-02  2.18072012e-02
   7.03135952e-02 -1.18097439e-02 -3.36993486e-02 -4.02584709e-02
  -3.54636945e-02  3.57412174e-02 -4.00713086e-03  6.84979185e-02
  -4.72967625e-02 -4.63089608e-02  1.58020630e-02 -7.37938508e-02
  -4.50328290e-02 -6.99134842e-02 -6.00852370e-02 -1.45420432e-03
  -2.97443941e-02 -6.16311617e-02 -3.01096179e-02 -2.47528516e-02
   1.30305439e-03  1.27349645e-02 -2.51785442e-02 -3.41282897e-02
   5.07152453e-02 -2.81651691e-02  7.50505701e-02  7.40399733e-02
  -7.99791515e-03 -4.28711921e-02  1.68561339e-02 -6.53135777e-03
   2.01373547e-03 -3.34938392e-02 -6.15295768e-02  5.96893802e-02
  -5.41190431e-02 -2.85602920e-02 -5.92485666e-02  5.52307591e-02
   4.05865833e-02  1.84284747e-02  2.61011124e-02  6.84212968e-02
  -5.11117429e-02 -7.68574029e-02 -5.67683131e-02 -1.72091350e-02]
 [ 1.66387185e-02  4.31159884e-02  1.04997963e-01 -3.14845028e-03
   6.61355332e-02  4.13367674e-02  2.99928859e-02  1.88214481e-02
  -7.45899901e-02 -7.47038946e-02 -1.36198029e-02  8.79642963e-02
   5.66430092e-02 -6.28963411e-02  5.47423996e-02 -2.54775267e-02
  -3.25293280e-02  3.71431583e-03  3.76736969e-02  1.81113537e-02
  -8.60060975e-02  2.44555157e-02  7.44558349e-02 -1.21026207e-02
   1.07483476e-01 -3.24279666e-02 -8.64860639e-02  6.81639239e-02
   3.08493674e-02  4.14895862e-02 -6.02427535e-02 -8.52179378e-02
  -6.42165989e-02 -7.48990849e-02  1.02120116e-02  3.54118049e-02
  -4.76004891e-02  5.04046567e-02  3.69978473e-02 -4.26081195e-02
   9.62032899e-02 -5.30862175e-02 -8.47564787e-02 -2.49426812e-02
   7.30580539e-02 -8.46134722e-02  3.78072150e-02  3.51935476e-02
  -4.18068394e-02  8.19519982e-02  5.44713512e-02  5.62665761e-02
   8.79745930e-03 -8.06284230e-03  2.79354341e-02 -7.88423419e-02
   3.69559340e-02 -7.52541795e-02  6.88814968e-02  8.27611536e-02
  -1.00219533e-01  2.65725721e-02 -7.80259445e-02  7.20683783e-02
   8.97485912e-02  2.57040001e-02 -3.42939161e-02  2.65411530e-02
  -3.88991795e-02 -9.78783332e-03  1.03406124e-01  7.24200308e-02
   1.40518114e-01  2.14033481e-03  3.22696865e-02 -1.13849947e-02
   3.99867930e-02 -8.42478722e-02  1.24124825e-01 -1.15642831e-01
   5.76106720e-02 -3.71024758e-02 -1.33837955e-02 -3.86861712e-02
   1.17364582e-02  3.15227211e-02  2.56642438e-02  3.06831151e-02
  -4.42581028e-02  2.38519404e-02  1.89548228e-02 -1.94546264e-02
   3.34634669e-02 -6.00898378e-02  2.98985802e-02 -3.78307216e-02
   7.82463625e-02  7.11026564e-02  7.48243602e-03  7.97452182e-02
  -4.28933017e-02 -2.61563691e-03  9.43792704e-03  5.76635227e-02
   6.99221268e-02  9.46260169e-02  2.45749801e-02  3.34628262e-02
   2.55238488e-02  3.92802916e-02  9.45128575e-02  5.47645390e-02
  -3.36033255e-02 -7.00184256e-02 -4.45516743e-02  5.72631434e-02
   3.61277200e-02  1.37679391e-02 -4.80522402e-02 -5.92193045e-02
   5.34746386e-02 -3.75318751e-02  4.81990241e-02  2.24775076e-02
  -3.43932994e-02 -1.00986943e-01  3.00388783e-02 -8.12623799e-02]
 [ 2.92954221e-02  5.11261821e-02  1.46303400e-01 -3.70795280e-02
  -1.05452314e-02 -4.39937152e-02 -4.97126505e-02 -6.23033978e-02
  -6.93352669e-02  4.24122512e-02  1.16527015e-02  9.31077525e-02
  -3.96621637e-02 -1.01583153e-01  9.34394002e-02  6.84087574e-02
  -1.27253355e-02 -1.52655756e-02  4.80354503e-02  1.18344128e-01
  -6.48491383e-02  5.09868236e-03  2.69202162e-02 -5.67213707e-02
   1.14767917e-01  4.49541323e-02 -2.94490885e-02  1.81415137e-02
   7.52508640e-06  1.37984883e-02  3.58404666e-02 -1.22203305e-01
  -2.53218170e-02 -5.98495919e-03 -7.85409585e-02  6.83460087e-02
   5.80512732e-02  6.29774928e-02 -3.53611335e-02  7.23268762e-02
   1.68319404e-01  1.19801998e-01 -8.51619914e-02  3.02696787e-02
   3.90695482e-02  5.05742729e-02  1.90029703e-02  1.72151551e-02
  -8.81664231e-02  8.48802775e-02  2.60043070e-02  8.59330446e-02
   1.09924786e-02 -1.08705111e-01  2.31713746e-02  5.90216927e-02
   5.63576072e-02 -7.48559311e-02 -9.69068985e-03  5.55807836e-02
  -5.82114235e-02  2.85224989e-02  1.05896771e-01 -7.83433691e-02
  -4.71279435e-02  1.83158573e-02  2.05627992e-03  6.18050247e-02
  -3.21842246e-02 -5.48941232e-02  2.81520989e-02 -2.96102208e-03
   1.33282587e-01  7.97607377e-02 -9.12547112e-03 -4.11847653e-03
  -3.75085771e-02  4.61566038e-02  1.00096561e-01 -4.21879180e-02
  -3.77225578e-02  1.31373540e-01  3.96999158e-02  3.41463881e-03
  -1.04888054e-02 -2.18286663e-02  2.05509532e-02  2.47963239e-02
   5.53343855e-02 -1.05469406e-01 -9.65405107e-02  6.39049485e-02
  -9.83935781e-03 -1.23059846e-01  9.19121876e-02  4.57085595e-02
  -4.24391590e-02 -3.28306779e-02 -8.20078552e-02  8.11722055e-02
   3.30338292e-02  9.02590714e-03  9.78936162e-03 -3.60297151e-02
   2.64371932e-02  1.66541204e-01 -6.59597144e-02 -4.27034625e-04
   8.10792968e-02 -4.44755591e-02  4.74391803e-02  1.12398416e-01
  -1.93488225e-02 -9.76774395e-02 -5.57898469e-02  5.29260188e-03
   1.23270467e-01 -1.54646067e-02  1.26352608e-01  7.58696049e-02
   6.94785938e-02  2.56727431e-02 -2.34928988e-02  6.91711232e-02
  -9.93398726e-02  4.02706079e-02  5.16969934e-02  6.89463243e-02]
 [ 2.51154136e-02  9.45108160e-02  1.54437363e-01 -2.52404101e-02
   1.85002536e-02  1.45855220e-03 -8.92207697e-02 -3.56000625e-02
  -6.00006357e-02 -6.51411433e-03 -2.70646848e-02 -1.02219999e-01
  -8.71006325e-02 -5.55391088e-02  1.27916783e-01  9.53131989e-02
   4.62868847e-02 -5.91399744e-02 -2.19679028e-02  3.57274972e-02
  -1.64519906e-01  9.87305492e-02 -4.69485745e-02  5.65767512e-02
   8.10665637e-02  4.02165297e-03  3.58514301e-02  1.62320805e-03
  -4.15324979e-02  3.18392292e-02  4.04437184e-02  2.67630834e-02
  -2.88556218e-02 -5.37333935e-02 -4.99212816e-02 -6.79076165e-02
   1.12649873e-02  4.96106148e-02  7.24655390e-02  1.12625808e-01
   7.55644068e-02  7.65293017e-02 -9.45274532e-02  4.76379879e-02
  -6.77108020e-03  9.96009447e-03 -2.15625595e-02  7.35485926e-02
  -7.68730715e-02  7.65800849e-02 -6.34845644e-02  4.99965996e-02
   4.13339660e-02  5.39360717e-02  4.48385589e-02 -5.11399545e-02
   1.77038927e-02  6.92421664e-03  2.78211553e-02  1.00936882e-01
  -5.38811684e-02 -3.74538191e-02  1.01484396e-01  2.39195419e-03
  -1.10060107e-02  2.78023109e-02  3.68905552e-02  7.71928579e-03
   1.82996523e-02 -2.40854826e-02 -2.83898134e-03  1.90478582e-02
   6.93398193e-02  6.37979507e-02  1.39157157e-02  6.34664577e-03
  -8.26250166e-02  4.83034784e-03  3.69338058e-02  1.68324932e-02
   5.89682683e-02  1.30152225e-01 -2.54910532e-02 -5.67630418e-02
   7.93152303e-02 -6.58430606e-02 -3.93872634e-02 -2.50850357e-02
  -5.99217936e-02  3.58427018e-02 -2.74456330e-02 -7.21898153e-02
  -8.72277468e-03 -4.55730185e-02 -5.82366660e-02  8.12571794e-02
  -1.38914093e-01  4.15409803e-02  5.03728613e-02  2.00694383e-04
   1.34318741e-02  2.52718925e-02 -3.31499912e-02 -7.84466509e-03
  -3.96081842e-02  5.64241298e-02 -4.35574017e-02 -2.91961785e-02
   3.45833227e-02  2.11461540e-02  7.90175200e-02  7.84858316e-02
   3.44293788e-02 -2.98983697e-02 -2.90628336e-02 -3.01892310e-02
  -3.02729663e-02  7.85727613e-03  5.74344583e-02 -4.95634489e-02
  -6.80863038e-02 -5.12195490e-02  4.28763442e-02  5.95444217e-02
  -7.08501739e-03 -1.15744015e-02 -8.11398029e-03  1.43773565e-02]
 [ 9.00807753e-02  5.45822568e-02 -1.70744490e-02  2.97064837e-02
   6.39169142e-02  2.25100648e-02  9.64064524e-03  3.78662758e-02
  -4.64012064e-02 -3.24062700e-03  3.98121253e-02 -2.65591238e-02
  -6.25316054e-02  1.09054223e-02  7.95213655e-02  7.79196769e-02
  -6.74988776e-02 -3.24938782e-02 -5.66463098e-02 -7.41866529e-02
   3.27339768e-02  4.86089662e-02 -4.09097373e-02 -4.57314737e-02
   8.11506733e-02  4.62316833e-02  4.48217653e-02 -3.11445594e-02
  -3.00076604e-03  5.81134446e-02  3.67513821e-02  4.96536680e-03
  -6.22161552e-02  2.08791979e-02  3.85662541e-02  8.48904811e-03
   7.53582194e-02  3.60359065e-02 -8.02587047e-02  5.35491034e-02
  -5.11049703e-02 -2.37632282e-02  3.13764066e-02  2.32312679e-02
   2.60874201e-02  2.13595610e-02  6.19354285e-02 -7.09203258e-02
  -5.80118299e-02 -9.85962246e-03 -1.86818019e-02  5.03624491e-02
   8.86127353e-02 -4.69422713e-02  3.11209504e-02 -5.42763248e-02
   6.74653202e-02 -5.51941469e-02  4.90530394e-02 -2.80378293e-02
  -7.57186115e-02 -3.82956937e-02  4.63164262e-02 -2.83026900e-02
  -4.68037687e-02  5.36286971e-04  7.58675113e-02  2.57414430e-02
   6.10739999e-02  8.48320946e-02 -8.14844482e-03  6.75511062e-02
   5.86310551e-02 -6.24886416e-02 -5.00346124e-02  5.85711710e-02
   1.04813464e-02  4.43922430e-02 -1.60219017e-02  6.33705184e-02
  -4.01843600e-02 -5.64937619e-03 -5.98202981e-02 -7.77527988e-02
  -2.74915602e-02 -2.15358473e-02  3.17084044e-02 -5.20584323e-02
   2.64139511e-02 -5.06448485e-02  2.42457259e-02  1.99829210e-02
  -3.06551661e-02  1.37042357e-02  3.73414494e-02 -1.46899121e-02
  -1.63176805e-02 -8.17823410e-02 -2.58002691e-02  3.44769582e-02
  -4.81158122e-02  3.13508436e-02 -5.17201261e-04 -7.20862448e-02
  -1.28334016e-02  8.01260024e-02 -6.03286885e-02  5.38255423e-02
  -4.41015139e-02 -8.98185465e-03 -5.43943793e-02  2.05593947e-02
   5.55586666e-02 -5.95956184e-02 -3.95232104e-02  2.55770460e-02
  -6.23678789e-02  1.24456175e-03  1.04884528e-01  9.74922907e-03
  -6.50335401e-02  7.16219842e-02  5.73417135e-02  6.77822903e-02
   6.36798665e-02  3.76901254e-02 -7.23563358e-02  6.41130134e-02]
 [-7.91624114e-02  3.07520926e-02 -4.13081162e-02  3.17443982e-02
   2.82619968e-02 -6.41213357e-02 -6.78966194e-02  2.11656094e-03
   1.83368623e-02 -5.13240807e-02  3.18187922e-02  4.46430817e-02
  -4.59292531e-03 -4.20195349e-02  2.64484435e-03  4.42771837e-02
   1.39924586e-02 -4.87264805e-02 -4.81146574e-03 -7.65616223e-02
   2.32491419e-02  3.28186452e-02 -1.34798586e-02  5.79111353e-02
   2.38022581e-02  6.54535741e-03  6.59839287e-02  1.30781606e-02
  -8.09783414e-02  6.14467189e-02  5.21381870e-02  3.65267247e-02
   4.43011522e-05  6.29571825e-03  6.41202703e-02  3.09894159e-02
   4.53114584e-02  5.09831682e-02  5.08844852e-03 -1.52926892e-02
   7.65947476e-02 -7.34517202e-02 -6.36905357e-02 -1.56745464e-02
  -2.31694505e-02  5.94812408e-02 -7.92818293e-02  4.64037806e-03
   6.33347109e-02 -3.19228917e-02  3.20749879e-02  2.32271180e-02
   4.58777025e-02 -4.35806587e-02  7.15725496e-02 -2.02675425e-02
   3.58656794e-02 -7.67241418e-03  7.06207380e-02 -5.04534096e-02
   2.36444920e-02  6.58241287e-02  1.53431594e-02  1.04992092e-02
  -6.33034036e-02  5.68485036e-02  2.23877206e-02  7.25901499e-02
   6.20971546e-02  5.04572615e-02  2.53548697e-02  3.83532792e-03
  -3.63068655e-02  2.68552154e-02 -6.30884916e-02  3.47634554e-02
  -4.93275560e-02  7.70409480e-02  4.79868725e-02  7.76954666e-02
   5.22918627e-02  5.42124882e-02  7.98620209e-02  4.70166132e-02
  -4.32879329e-02  2.51585841e-02  2.53789872e-02 -6.52099401e-03
   7.70324692e-02 -4.58079465e-02  3.19335461e-02  4.90978360e-04
   8.87898356e-03  4.88914773e-02  3.50111797e-02 -7.62261227e-02
   7.28162751e-02  5.32519892e-02 -2.57934444e-02 -4.07663733e-02
  -3.71967740e-02 -6.89783022e-02 -5.36482558e-02 -4.61063944e-02
   4.77788523e-02 -3.29918340e-02 -6.79386556e-02 -4.57918942e-02
   3.09809074e-02 -5.05718775e-02  5.04497811e-02 -6.52269870e-02
  -7.71568939e-02 -4.04329225e-02  6.63557276e-02 -7.56058693e-02
   2.48038247e-02 -1.65342689e-02  5.88799343e-02 -3.29476856e-02
  -4.58821654e-02  1.80576593e-02 -1.59181058e-02  5.00425175e-02
  -6.13107532e-03  7.88986608e-02  3.58885601e-02  6.96931407e-02]
 [-3.00431512e-02 -6.01043627e-02  6.16304204e-02 -4.86165807e-02
  -6.41943961e-02 -5.84223382e-02 -2.44341530e-02  7.97043666e-02
  -7.22651929e-02  1.14409477e-02  7.23190680e-02 -6.60929531e-02
   2.94409394e-02  3.67780626e-02 -6.07364774e-02  6.00631014e-02
  -4.69678566e-02 -7.34261498e-02 -2.62004174e-02 -5.58370017e-02
  -7.05947131e-02  6.93510696e-02  7.34997466e-02 -3.59000638e-02
  -2.98989266e-02 -1.63500682e-02  7.50840232e-02  1.99419633e-02
   3.85984331e-02 -7.61269033e-02  1.84619874e-02  7.95209035e-02
   1.56033784e-02  4.10855934e-02  4.24930528e-02 -5.26476875e-02
  -5.22253811e-02 -7.87865743e-02 -8.03787932e-02  6.68139979e-02
  -5.06658405e-02  5.72988018e-02 -3.53001729e-02  4.27979976e-02
   8.27029347e-03 -3.77912931e-02 -2.48866528e-02 -1.20304897e-02
  -6.87504560e-02  5.82181886e-02 -6.46259636e-02  1.33242011e-02
  -2.68769301e-02  9.91064310e-03  1.56796873e-02  1.52553841e-02
   2.17607543e-02  4.05614078e-02 -7.24603608e-02 -4.97751795e-02
   2.86200866e-02 -6.80727512e-03 -6.85942024e-02 -7.61224926e-02
   5.36347404e-02  2.45670229e-03 -1.85143948e-02 -1.27639174e-02
   2.34440565e-02  5.84796742e-02 -6.60843104e-02 -4.59859371e-02
   5.97859398e-02 -6.30327240e-02 -2.54456438e-02  5.99969998e-02
  -2.66626440e-02  2.82282159e-02 -3.42583209e-02 -3.66645083e-02
   3.94004509e-02  7.72876963e-02  1.34927034e-03 -1.29831359e-02
  -5.88789582e-03 -5.78426123e-02 -1.55493841e-02  7.03232661e-02
   2.46117413e-02  6.09097853e-02  5.14039397e-03 -3.98475900e-02
  -3.87560986e-02  2.97540054e-02 -3.81631665e-02  1.42554417e-02
  -6.82064742e-02  5.86547628e-02 -2.73408182e-02 -4.84711193e-02
   3.42014059e-02  7.28442743e-02  5.18820509e-02  8.09513852e-02
  -1.41845271e-02 -5.41558042e-02  3.31057981e-02 -2.50935890e-02
  -1.72760636e-02 -5.66032976e-02  4.17662039e-02  7.12818578e-02
  -1.41324848e-02  8.48038495e-03  5.98789379e-02  3.50120664e-02
  -3.86215225e-02  6.16208985e-02  2.67011821e-02  4.84090075e-02
  -5.63320443e-02  6.44527599e-02  5.20749316e-02  7.35153630e-02
  -6.60118461e-02  7.24581555e-02  6.32483438e-02  3.36994827e-02]
 [ 2.45831758e-02  2.04123557e-03  2.36196071e-03  2.54654139e-03
  -1.09005570e-02 -5.22358418e-02 -3.89719941e-02 -7.17555732e-02
   3.33945155e-02 -7.41189867e-02  2.37498134e-02 -3.29038277e-02
   3.83966193e-02 -3.71143222e-04  1.49128065e-02  2.47926265e-02
  -3.52168046e-02 -5.05335480e-02 -2.11207867e-02 -8.95316899e-03
   1.70025975e-03  1.68508366e-02  1.56734884e-03 -6.73120022e-02
   4.81953397e-02  7.81812146e-02 -6.18147403e-02 -7.60841444e-02
  -4.94109616e-02  7.72557929e-02  5.78190461e-02  6.58606738e-03
   2.24898979e-02  9.44855809e-03  7.45971426e-02  6.43717870e-02
   4.97456640e-03  1.35329217e-02  3.12862396e-02  1.53741017e-02
  -4.25190628e-02  4.78440300e-02  6.83552101e-02 -4.75328453e-02
  -3.83454710e-02  6.45864084e-02  7.32245818e-02 -6.47951961e-02
  -2.78160162e-02 -4.75546978e-02 -1.91293694e-02 -4.07882072e-02
  -6.75249696e-02  3.84583473e-02  6.94492236e-02 -5.10068163e-02
   3.12144160e-02  4.90357205e-02 -6.78842217e-02  2.67094001e-02
   2.21181214e-02  4.23268601e-02 -1.95531547e-03 -7.39893019e-02
   5.90963587e-02  7.28284568e-03 -6.80195689e-02  7.66498819e-02
  -7.39578754e-02 -5.87253124e-02  5.70651516e-02 -2.85945833e-03
  -1.12233311e-02 -6.21513277e-03 -6.97116330e-02 -2.77815759e-03
   2.34849751e-02 -9.44184512e-03  4.67434153e-02  4.91219684e-02
  -9.29098576e-03  6.33453801e-02  4.46213111e-02  5.56950197e-02
  -4.87800501e-02  4.63001058e-02  1.89555138e-02 -1.68180764e-02
   5.25590405e-02 -1.84884369e-02 -7.30805770e-02 -1.31035373e-02
   2.62888744e-02  5.54406568e-02 -2.71811411e-02  7.08850548e-02
  -4.11752611e-02  8.10302049e-03 -7.96421990e-02  5.35066947e-02
   3.54919508e-02  6.42083585e-03  5.71322963e-02  1.72762573e-03
   3.65169346e-03  5.15849963e-02  6.01969585e-02  1.94797814e-02
   6.52879402e-02 -3.88218872e-02 -3.53347659e-02 -6.54105395e-02
   1.86210424e-02 -1.12255514e-02 -1.20830312e-02  4.92296889e-02
   2.54108161e-02  2.82942951e-02 -1.74863115e-02 -5.10071442e-02
   3.10717374e-02  4.46032807e-02 -5.47346994e-02 -6.46675453e-02
   2.06266567e-02 -5.08070514e-02  7.71787241e-02 -5.22649065e-02]
 [ 1.03332251e-02  2.51468867e-02  2.65068561e-02 -6.28500581e-02
   3.33111733e-03 -3.61668766e-02  1.58391669e-02  3.38065401e-02
  -3.15123796e-02 -1.72170848e-02  4.97086719e-02  6.76141009e-02
  -1.02100223e-02  1.96873397e-03 -5.08385152e-02 -4.21355627e-02
  -7.97598287e-02  3.73079479e-02  3.75155881e-02 -1.66414976e-02
  -6.66766763e-02  4.55713347e-02 -7.52793998e-02  2.57143527e-02
   4.20483127e-02  6.61491826e-02  1.63739100e-02  1.17777959e-02
  -7.75064752e-02 -3.32541801e-02 -5.28422743e-02 -5.53501770e-02
   4.63697687e-02 -1.87648237e-02 -4.20727134e-02 -5.32985777e-02
   4.71618548e-02 -7.45423883e-03 -3.35917473e-02  7.74237514e-03
   3.93563434e-02 -6.85830712e-02 -2.76707485e-02 -2.84529030e-02
   7.25487620e-03  4.67246398e-02 -4.44871001e-02 -2.34235935e-02
   4.52906415e-02  6.76107407e-03 -7.30940178e-02 -5.53139597e-02
   2.75910944e-02  3.87634262e-02  4.10154536e-02  7.78498873e-02
   5.69787696e-02  9.91992652e-03 -2.33064219e-02 -5.48253171e-02
   4.97882068e-03  7.26680830e-02  3.14491242e-02  5.48208728e-02
   5.36987409e-02  1.35632679e-02 -3.46102975e-02  7.65406415e-02
  -5.09330183e-02 -3.15086544e-03  3.60276550e-03  1.17375180e-02
  -4.33483273e-02 -4.37788367e-02  6.55297115e-02 -5.80537915e-02
  -3.42883728e-02 -1.41159147e-02 -5.27626164e-02  3.04635689e-02
   4.00658026e-02  7.83982947e-02  2.71418691e-03 -6.50040135e-02
  -1.45493448e-03 -4.24180776e-02 -1.02511570e-02  7.28191808e-02
   1.80213824e-02 -3.42501774e-02  8.10557678e-02 -5.87347299e-02
  -4.60291952e-02  2.95001715e-02 -4.28593010e-02 -3.10134143e-03
   2.97293514e-02 -1.12382397e-02 -4.88552153e-02 -2.09423937e-02
  -5.43102808e-02 -6.36529252e-02  1.99218318e-02  2.65813246e-02
  -6.10520765e-02 -2.81922035e-02  7.18550161e-02  6.61239102e-02
   4.50680479e-02 -4.64574993e-02  1.02308467e-02  5.13062626e-03
  -6.17909953e-02  3.94646749e-02 -4.51340638e-02  3.73812243e-02
   7.53583387e-02 -1.98163800e-02  2.54898295e-02 -7.00065419e-02
   6.04224280e-02 -8.42093676e-03  7.56415725e-03 -1.83248967e-02
  -5.21051511e-02  3.39884162e-02  5.03077433e-02 -4.47305702e-02]
 [ 4.81577292e-02 -4.11724970e-02  1.28778964e-02  5.22895977e-02
   4.11140770e-02  1.12060830e-02 -5.16116209e-02 -2.94027478e-03
   2.62450352e-02  7.75463060e-02 -1.19894594e-02  6.07696995e-02
  -4.87633198e-02 -4.50129285e-02  3.70498821e-02  2.49582231e-02
   9.92667675e-03  1.12897977e-02 -7.49279037e-02  3.59091759e-02
   5.77547178e-02  1.98892057e-02 -1.43719167e-02 -1.86115876e-02
   3.82649228e-02 -5.82632199e-02 -5.68643287e-02 -4.84168380e-02
  -1.83768198e-02 -2.58002691e-02 -3.93651575e-02 -2.66051888e-02
   2.37264112e-02 -6.02817535e-03 -4.49281111e-02 -2.68515572e-02
  -7.71716163e-02 -4.51964885e-02  4.30545956e-02  6.44855127e-02
  -6.12987950e-02 -2.59013511e-02 -4.97523397e-02  7.09403530e-02
   4.18315083e-02 -7.92859644e-02 -2.63255835e-03  7.10833594e-02
  -4.86811139e-02 -6.07564300e-02  6.37888089e-02  1.33805349e-02
  -1.12402141e-02  7.15543404e-02  2.21251026e-02  6.02488592e-02
  -8.02268907e-02  6.04718700e-02 -5.02117202e-02  8.08554068e-02
   3.62657532e-02 -8.09727907e-02 -7.25200921e-02 -7.05325827e-02
   1.26873180e-02  2.08249316e-02 -5.67967817e-02 -5.40417507e-02
   7.61580542e-02 -5.89570627e-02  5.42137101e-02  4.41604778e-02
   5.71749732e-02  2.10088938e-02  1.37849972e-02 -4.64260951e-02
   5.54452315e-02 -5.53540289e-02 -4.65257056e-02 -8.50051641e-04
  -4.75536324e-02 -3.08427513e-02  7.75830373e-02 -1.99346989e-03
  -5.59416190e-02 -7.80641735e-02  5.37263379e-02  1.01791769e-02
   6.56872913e-02  2.84526497e-03  5.73707148e-02 -4.36966680e-02
   8.03541020e-02  2.89421231e-02 -3.24306786e-02  6.21649697e-02
   4.15173024e-02  6.97699711e-02 -6.88336939e-02 -2.60156989e-02
   3.96504551e-02  7.68347755e-02 -5.28108478e-02  5.41122928e-02
   1.99245587e-02 -5.30431941e-02  4.46211770e-02 -2.70284079e-02
  -5.98877668e-05  7.45427087e-02  5.41304126e-02  4.79637161e-02
  -2.88339481e-02  2.24672258e-04 -7.42190778e-02 -7.83731192e-02
   7.08682612e-02 -7.23801851e-02  3.26948166e-02  2.90253535e-02
   7.16641024e-02 -3.41545716e-02  7.59455487e-02 -5.62716089e-02
   1.25334784e-02  3.05454433e-03 -4.69962247e-02 -6.66008517e-02]
 [-4.20614779e-02  5.71960136e-02  8.02809075e-02  1.79266259e-02
  -5.25461063e-02 -5.39295897e-02 -7.56785199e-02  6.11072108e-02
  -2.57775299e-02  7.81950578e-02 -4.54400145e-02  7.84371868e-02
   2.18829513e-02  6.82272986e-02  2.49770358e-02 -3.56594175e-02
  -4.78529707e-02  3.35139707e-02 -4.01483588e-02  3.99060920e-02
  -2.30879188e-02  7.21161142e-02  4.93417159e-02 -3.79968584e-02
   3.20538133e-02 -3.11919227e-02 -5.57680577e-02 -1.23348981e-02
  -7.94124752e-02  3.04068252e-02  7.56706372e-02 -7.48053193e-02
   3.70102376e-03  4.81246188e-02  2.71626115e-02  1.70080960e-02
   4.32322994e-02  7.10593387e-02  4.55101579e-03 -7.57791772e-02
   9.00518894e-03 -7.10468441e-02  3.74838114e-02 -5.19322492e-02
  -7.36900643e-02  4.28749025e-02 -6.64115325e-02 -3.80111486e-03
  -5.58463410e-02  3.11189443e-02  5.35877272e-02  6.86559603e-02
   7.78474286e-02 -6.00694120e-03 -4.23398726e-02  2.58776248e-02
   4.93661538e-02  4.80194166e-02 -7.21388385e-02 -5.82463220e-02
  -7.63494074e-02 -5.12665287e-02 -7.88737833e-03  2.09969059e-02
   3.18916962e-02  4.46560755e-02 -7.31036812e-02 -4.60670888e-03
  -1.49912462e-02 -6.49026185e-02  6.83086738e-02 -1.57950222e-02
  -5.54103777e-02 -2.89215669e-02 -1.16833523e-02  4.75095436e-02
  -1.75544396e-02  6.27841875e-02  5.79572096e-02  7.54847378e-03
   5.63614294e-02 -5.82527816e-02  3.51139084e-02 -7.65065476e-02
   7.90197402e-03  4.49020043e-02 -6.35630190e-02  6.95709661e-02
   1.77027807e-02 -3.89959328e-02  5.84475026e-02 -4.41771746e-03
  -3.05859968e-02  7.48778954e-02 -9.86968726e-03  1.16244033e-02
   7.27851465e-02 -4.99344096e-02  1.12787709e-02 -8.98126513e-03
  -2.46387348e-02  1.52098835e-02 -6.23432174e-02  4.17326391e-03
   3.01207006e-02  3.27829272e-02  4.45702001e-02  7.47320727e-02
   2.36814916e-02  3.14549059e-02  3.49097699e-02 -3.94969694e-02
   7.28949234e-02  4.26576808e-02  4.05412987e-02 -1.17167458e-02
   4.91177291e-03  4.42199036e-02  3.75841409e-02  3.61328945e-02
  -2.81639695e-02 -4.10910249e-02  6.03958443e-02  2.57570520e-02
  -8.01676586e-02 -2.77275816e-02 -1.80397928e-02 -5.37477657e-02]
 [ 3.40688452e-02  7.13617429e-02  2.00778246e-03  2.91076824e-02
   4.01847586e-02 -4.84621860e-02 -4.01270688e-02  4.42330614e-02
  -7.98861310e-02  3.05660591e-02  6.27393201e-02 -7.79082477e-02
  -5.40634654e-02 -5.28929383e-03  7.07890317e-02  1.63612291e-02
  -4.94415164e-02  6.64891303e-03  4.54245433e-02 -6.25638068e-02
   7.16946200e-02 -2.42312960e-02 -4.30296361e-03  7.34943226e-02
  -7.73450956e-02 -7.28281140e-02 -7.53957927e-02 -7.03645498e-02
  -5.41871339e-02 -1.04715154e-02  5.06052598e-02  9.54733789e-03
   6.84337988e-02 -3.93500552e-02  4.45827618e-02  1.17348880e-03
  -1.27609372e-02 -5.24979532e-02 -3.36498804e-02  3.62931937e-02
   7.63083249e-03  7.56927803e-02  6.93774298e-02 -6.79796338e-02
  -5.97624630e-02 -4.51424383e-02  5.56706563e-02  7.93192908e-02
   7.13702068e-02 -1.62392184e-02 -2.51968578e-02  3.60475779e-02
  -6.76726624e-02 -2.71972492e-02  5.15113100e-02 -5.93098700e-02
  -1.72815546e-02  7.35740438e-02  2.84081176e-02  6.06940910e-02
  -2.72414200e-02  5.38813695e-02 -1.93342380e-02  4.38393280e-02
  -5.31083085e-02  1.47174522e-02 -3.50356810e-02  3.08975205e-02
  -5.36966957e-02  7.09787086e-02  5.91349229e-02 -5.41768298e-02
   1.46105513e-02 -5.30532748e-02  7.64757171e-02 -1.09193921e-02
  -1.98314451e-02 -6.36625364e-02 -2.24203430e-02 -5.33767045e-02
  -3.92559357e-02 -2.37548575e-02  5.98020330e-02  7.00883940e-02
  -1.64209977e-02 -1.09785646e-02  1.17179826e-02  7.60603175e-02
  -5.95658720e-02  3.42521891e-02  1.39855370e-02 -1.53291598e-02
   2.89356261e-02  1.06257349e-02  7.99625143e-02 -4.74258251e-02
  -3.73204239e-02  2.31722370e-02  6.04641512e-02 -7.33866245e-02
   7.92753324e-02  5.19081950e-04  4.81960922e-03  6.72953650e-02
   1.72344670e-02  7.52266124e-02  8.85780901e-03 -4.27565537e-02
   4.24606800e-02  4.05379385e-03 -7.04827160e-03 -5.33730909e-02
  -7.34333619e-02  6.07810840e-02 -5.02621755e-02 -2.71517672e-02
   3.67001444e-02  3.64530012e-02  6.34176359e-02  1.82412937e-02
  -5.62359504e-02  3.12552154e-02  5.37364557e-02  5.40849194e-02
  -3.26794460e-02  1.39176026e-02 -3.99158150e-03  5.80543280e-03]
 [ 2.92893276e-02 -3.67324427e-02  2.03240290e-02  6.25480339e-02
   1.32304356e-02 -5.23155555e-02  2.66161114e-02 -6.24872483e-02
   7.89868012e-02  3.84681895e-02 -6.48624152e-02  2.75428668e-02
  -9.61511582e-03  5.52746877e-02  2.49232575e-02  1.61598921e-02
  -5.77162951e-02  2.04814821e-02  6.68461248e-02  2.78242752e-02
  -7.15326071e-02 -5.32224253e-02  4.42731753e-02  3.24861780e-02
  -7.20961988e-02  6.92387447e-02  2.90362462e-02 -1.46734938e-02
   8.08394924e-02  2.43894830e-02  4.08035815e-02 -2.08186358e-03
   7.62853399e-02  4.16044369e-02  7.06500933e-02 -4.61663231e-02
  -1.70979351e-02 -6.42722100e-03 -5.28797880e-02  5.51956221e-02
   7.25896880e-02  1.88068822e-02  6.58369735e-02  3.73756960e-02
  -2.33521760e-02  3.50842178e-02  2.84441039e-02 -3.75201516e-02
  -3.29657681e-02  3.49886343e-02 -3.16211171e-02  3.00765261e-02
  -2.32494622e-03  2.72065327e-02  4.25009206e-02 -5.55973202e-02
   2.55864859e-02 -4.56310213e-02 -2.49082148e-02 -2.57141888e-04
   7.93926492e-02  2.09333450e-02 -1.10608861e-02  6.88591078e-02
  -1.32588446e-02  6.60110191e-02 -2.97124088e-02  5.00109121e-02
  -7.36290291e-02  2.45835781e-02 -6.33967519e-02 -2.93801390e-02
  -2.07488723e-02 -6.64964616e-02  2.79566422e-02 -1.02077052e-02
   5.69637641e-02 -4.54012230e-02  4.76229414e-02 -2.52114013e-02
   4.22626585e-02  2.02864930e-02  1.92167163e-02 -5.27864248e-02
   7.17890933e-02  2.69880295e-02  5.28093800e-02  6.72579929e-02
  -5.72746471e-02 -1.33147314e-02 -5.61636612e-02 -6.58082217e-03
   3.03175822e-02  1.59904361e-03 -4.75168340e-02  6.28379509e-02
  -3.59000266e-03 -4.35683951e-02  2.18794495e-02 -6.01926222e-02
  -2.71351747e-02 -2.07613856e-02  7.66260922e-03 -7.06670955e-02
  -5.31500205e-02 -4.11789939e-02  6.73188642e-02 -5.65080792e-02
  -2.98452638e-02 -5.11024222e-02  4.20188159e-02  4.73110899e-02
  -5.24853170e-03 -2.87718140e-02  6.03412613e-02 -2.31905095e-02
  -5.08708507e-02 -5.47940470e-02 -6.30658120e-02 -4.34537381e-02
  -1.65113136e-02  4.45266739e-02 -5.73574938e-02 -7.05996081e-02
  -7.43683353e-02 -6.29842058e-02 -5.52121811e-02 -5.50641045e-02]
 [-4.70114052e-02  5.02450541e-02 -7.30409101e-02  5.97742721e-02
  -1.10246241e-04 -4.71641980e-02 -5.93016706e-02 -8.18988681e-03
  -6.60045967e-02 -5.59751168e-02 -8.09361786e-02  5.33373877e-02
   6.45105913e-02 -4.44486737e-03  1.19245946e-02 -6.98244721e-02
   8.02957490e-02  2.52381042e-02 -6.47480339e-02 -7.62027055e-02
   3.50830182e-02  5.24319932e-02  6.29019961e-02 -3.98181789e-02
  -2.36892626e-02 -6.39211684e-02 -4.94067259e-02 -3.99339385e-02
   3.21836919e-02 -7.33436346e-02 -1.02150515e-02  3.82493809e-02
  -5.25966734e-02  6.61714375e-03  7.72361383e-02 -7.84763098e-02
  -2.75211670e-02 -4.88068126e-02  4.55537662e-02 -4.10831347e-02
  -5.82117662e-02  2.31916085e-02 -3.95832770e-02 -8.94825906e-03
  -4.02108245e-02 -7.32291341e-02 -6.09455220e-02 -2.73349956e-02
   7.42179528e-02  4.29201871e-03  6.25879243e-02 -3.40186618e-02
   2.01236457e-03 -3.24376673e-03  6.60284832e-02 -6.16255552e-02
  -6.60391897e-02 -7.95229748e-02  2.69796178e-02  4.64713052e-02
   2.97255367e-02  5.04349694e-02  3.81654873e-02 -3.68251912e-02
   5.20192757e-02  6.35112450e-02 -5.21529391e-02  4.99779806e-02
  -1.58288628e-02  3.37266549e-02  7.88480788e-03 -3.37883793e-02
   2.80221626e-02  2.25199163e-02  2.50116736e-02 -3.67544889e-02
  -4.60365042e-02  8.02290365e-02 -4.88986708e-02  7.05503300e-02
   5.95056638e-02 -5.66980988e-02 -4.84057367e-02  7.40499124e-02
   7.92444870e-02 -1.99386775e-02  1.60271004e-02 -5.07971495e-02
  -6.07818626e-02  2.22987011e-02  3.41962054e-02 -2.20653489e-02
  -7.31765702e-02  6.12649098e-02  3.87413427e-02 -5.81853837e-02
   1.12283230e-02 -7.69206583e-02  5.32712042e-03 -6.88860789e-02
   7.87385926e-02 -1.16755143e-02  6.27772138e-02 -7.49456584e-02
  -4.95999753e-02 -1.47081316e-02 -7.54634291e-03 -1.76458508e-02
   2.24198028e-02 -8.69610161e-03 -6.33913353e-02 -7.92277381e-02
  -7.73971751e-02 -1.91680826e-02  2.24430040e-02  8.63066316e-03
  -1.09355375e-02 -1.61023065e-02 -4.13283072e-02  5.57690784e-02
   2.25094929e-02  6.42196909e-02  5.45452461e-02  2.65668780e-02
   5.18045947e-02  1.63321048e-02  2.28641555e-02  4.91819307e-02]
 [-7.23818466e-02 -7.30092973e-02 -7.84532204e-02 -4.11744118e-02
  -4.01945785e-02 -3.19633298e-02  1.84747279e-02  4.72647697e-03
  -2.02607550e-02  7.21599981e-02 -5.77330254e-02 -4.14344557e-02
  -3.79385166e-02 -5.57088070e-02  1.05254874e-02 -4.84956391e-02
   4.19000611e-02 -1.39114112e-02 -5.22184744e-02 -4.23799790e-02
   7.88161382e-02 -7.40124732e-02 -3.59887294e-02 -6.30120710e-02
  -6.39448762e-02  3.10327113e-02  6.59951195e-02 -5.77142090e-02
   6.43157437e-02  2.20781565e-03  5.41191474e-02 -1.66028365e-02
   5.96464351e-02  1.98780522e-02 -1.90243423e-02  4.67049852e-02
  -9.57110524e-03 -4.51907068e-02  3.94971073e-02 -6.93289936e-03
   5.20304069e-02 -4.76119593e-02 -1.45141482e-02 -4.70299721e-02
   2.95328125e-02 -3.22499201e-02  4.88294438e-02 -1.87590197e-02
   4.70455363e-02  4.01382819e-02  1.60207376e-02  3.11951339e-02
  -3.71367894e-02  5.10365739e-02  4.06818688e-02 -7.96104446e-02
  -5.02527766e-02  6.77767769e-02  3.16066369e-02  2.94694975e-02
  -4.77018021e-02 -1.98919550e-02  3.13808620e-02  4.08693478e-02
   7.60300979e-02 -3.07173803e-02 -6.09911978e-04  4.29206640e-02
  -5.19120619e-02 -4.01474908e-02  3.10899690e-02 -3.47666666e-02
  -7.44975731e-02 -1.58700719e-02 -5.09463847e-02 -7.61670470e-02
  -2.91227624e-02 -2.20608599e-02 -1.51107758e-02  2.00604275e-02
  -1.24583542e-02  5.80426827e-02  3.54999974e-02 -7.69468993e-02
   1.00437105e-02 -2.55073719e-02 -5.96130341e-02  2.70772353e-02
   7.06314966e-02 -7.90176094e-02  3.92764509e-02 -2.31615193e-02
  -7.42270052e-02  4.08249274e-02 -7.85403773e-02 -6.28920794e-02
  -1.66512802e-02 -7.53175765e-02  7.98315331e-02 -4.89355624e-03
   1.66283101e-02 -1.49726197e-02 -5.44750430e-02  2.82416120e-02
  -4.81409766e-02 -3.24133299e-02  7.18419626e-02  7.75734261e-02
   2.22240165e-02 -3.99538539e-02  5.80761656e-02 -4.45874073e-02
   5.71465716e-02 -1.69401169e-02  4.73189428e-02 -5.01015037e-03
  -6.23680092e-02  7.08485171e-02 -7.93372914e-02  1.30785704e-02
   5.39683551e-03  7.51526430e-02  2.68031135e-02  7.71914795e-02
   9.83548164e-03  4.40661982e-02  1.09275132e-02  3.85468751e-02]
 [ 8.09392706e-02  1.97952837e-02 -6.30735084e-02  2.21388787e-03
   1.81198120e-04  1.11884251e-02 -9.24766809e-03  6.73369095e-02
  -5.54652438e-02 -3.15053985e-02 -2.17967592e-02 -5.40851243e-02
  -7.18220025e-02  5.91338947e-02 -2.24060118e-02  1.40682459e-02
   6.35972694e-02 -3.60749997e-02  7.11415038e-02 -6.94814101e-02
   3.38875502e-02 -1.15541890e-02  8.74495506e-03 -6.16201200e-02
  -1.59825459e-02  2.51529366e-02  5.03832102e-03 -7.04612210e-02
  -6.42413646e-02  2.01022625e-02 -9.07964259e-03  9.00149345e-03
  -1.66919678e-02 -7.39101321e-02 -6.37824088e-02 -5.59832007e-02
   4.86700237e-03 -9.82319564e-03  3.29034775e-02 -6.40378296e-02
  -2.07682885e-02  7.21710399e-02 -1.05403811e-02 -3.75065953e-02
   2.17472315e-02 -1.88791752e-03  2.57871598e-02  4.94831577e-02
  -7.49139413e-02 -3.48857716e-02  7.42912367e-02 -6.57602176e-02
   6.32301643e-02  1.64988935e-02  1.87893212e-02  6.64126500e-02
   6.26614615e-02 -4.30443883e-02 -4.09172885e-02 -6.96993545e-02
   6.77290484e-02 -1.35154799e-02 -2.86420919e-02  7.69728422e-03
   6.04904518e-02 -7.68606141e-02  4.81034741e-02 -6.31876066e-02
   6.22172728e-02  4.37966883e-02 -6.82622194e-04 -7.50969425e-02
  -6.67380542e-03 -5.96860200e-02 -3.28609161e-02 -3.63250636e-02
  -1.65281147e-02  1.07466057e-02 -3.70041467e-02 -1.99028440e-02
   2.63386294e-02  3.37286815e-02  2.97719911e-02  4.29618508e-02
  -4.46677804e-02 -3.32322121e-02 -5.45492247e-02 -7.32123703e-02
  -2.08883621e-02  5.74758127e-02 -3.51036936e-02  1.96458772e-02
  -5.57526872e-02  7.57489279e-02 -6.63354918e-02  1.25225559e-02
   5.46780601e-02 -4.27336209e-02  6.59198537e-02 -3.34432684e-02
   7.19197914e-02 -5.66313043e-02  2.95034796e-02  5.50944135e-02
  -1.06011033e-02 -7.24585056e-02  6.67250231e-02 -3.04984525e-02
  -1.49423182e-02 -1.70824677e-03  7.60555789e-02  1.86550021e-02
   4.98797372e-02  7.67156556e-02 -3.44891213e-02 -2.20590048e-02
   5.28721735e-02  2.42152065e-02 -5.28403968e-02  3.77957523e-03
  -2.40321122e-02  4.90221605e-02  4.86658886e-02  6.29824772e-02
   7.35437348e-02  2.62607709e-02  3.24798897e-02 -4.59967442e-02]
 [-3.36621217e-02 -1.18970871e-03  8.08833316e-02 -4.73418832e-03
   6.76724091e-02  1.44550726e-02 -9.38742608e-03 -2.87893713e-02
   7.03798309e-02 -3.35612334e-02  2.74771526e-02  6.78606406e-02
  -6.49050996e-02 -5.71862906e-02 -4.36076336e-02 -2.03411058e-02
  -2.95685120e-02 -7.50658661e-03  4.59942147e-02 -7.46105239e-02
   5.28083667e-02 -3.96104082e-02  6.67613968e-02 -7.53422081e-03
   3.25679407e-02  7.33082071e-02  2.36990675e-02  3.21176648e-03
   5.26530072e-02 -5.65938428e-02 -5.47418743e-02  2.72023752e-02
  -7.64965340e-02  4.43931669e-03  7.95362964e-02  5.86675927e-02
   2.12886035e-02  5.32628223e-02  4.39510867e-02  8.72118771e-03
   4.64283153e-02  6.54005036e-02 -3.74413095e-02 -2.87496522e-02
  -2.91476920e-02  2.58508995e-02 -1.48066580e-02 -1.95575170e-02
   7.03523681e-02 -3.05821113e-02  3.70626673e-02 -7.91739002e-02
  -7.46990144e-02 -3.17896158e-03  5.97902015e-02 -6.17917851e-02
   3.02321240e-02 -7.02191144e-03  7.98714980e-02 -1.52877942e-02
   4.27535176e-03 -3.43767665e-02 -7.92212784e-02  3.64464894e-02
   2.61860117e-02 -3.40355821e-02  6.46616295e-02 -7.34971240e-02
  -2.28312239e-02  1.77192613e-02 -1.57184601e-02  6.90749362e-02
  -5.18103018e-02  7.20097497e-02 -5.28740063e-02  3.60437259e-02
   6.51337206e-03 -5.51561788e-02  8.01520571e-02 -7.07329661e-02
   7.94109926e-02 -4.07311767e-02  6.33688793e-02  1.87902153e-03
  -2.32063234e-03  2.24372074e-02 -5.87171689e-02 -7.91428462e-02
  -7.90518373e-02 -5.37288748e-02 -3.60754058e-02 -7.23365545e-02
  -2.15243995e-02  1.58793926e-02  2.20908374e-02  4.83519807e-02
   3.40320989e-02  6.42364547e-02  2.10174471e-02 -6.73255548e-02
  -6.01195060e-02  5.19996881e-03 -9.44614410e-03  4.97998297e-03
   5.35145029e-02  7.81379119e-02  7.12048635e-02 -6.32766932e-02
  -6.86134100e-02  4.32969630e-02 -2.80223787e-03  7.70542845e-02
  -2.63725854e-02 -3.97940055e-02  5.66756502e-02  4.34947386e-02
   5.96081093e-02  7.37605244e-03  3.28909457e-02  7.19271824e-02
   3.92573699e-02 -4.42884564e-02 -7.88027421e-02 -1.97574012e-02
   2.90449262e-02  7.34053478e-02  5.59468642e-02  3.30952406e-02]
 [-1.70840546e-02 -4.44386974e-02 -7.24001601e-02 -3.75500098e-02
  -7.19843060e-03 -7.74328709e-02  3.45700979e-03 -1.18065923e-02
  -1.81063339e-02 -1.55463889e-02 -4.76531684e-04 -6.87689260e-02
   4.68199328e-02  4.49231640e-02  4.13531363e-02 -1.17615536e-02
  -7.03631565e-02 -4.91433181e-02  1.97666213e-02 -4.42250483e-02
  -1.67616680e-02  2.43090764e-02 -5.40352911e-02 -6.70490563e-02
  -2.55837776e-02 -7.36526400e-03  7.59618506e-02  7.57039115e-02
  -3.93023081e-02  8.08080956e-02 -6.63808584e-02  2.72357911e-02
   5.72731569e-02 -1.24474093e-02 -7.98760578e-02 -1.72778219e-03
   1.80711746e-02  6.59108981e-02  4.89055291e-02 -7.83012956e-02
   6.08257428e-02  2.31120139e-02 -1.08816996e-02  1.58843622e-02
  -4.85911705e-02  4.86067757e-02 -1.06766820e-04  5.34135178e-02
  -3.32751237e-02 -2.99649872e-02 -5.59706464e-02 -1.94083825e-02
   5.86070195e-02 -4.54828478e-02  2.49174386e-02  1.99620202e-02
   5.60037866e-02 -7.19303638e-03 -5.14808558e-02 -5.63279614e-02
  -1.66469142e-02 -9.16118920e-03 -5.69534600e-02 -4.94323112e-02
  -5.71463183e-02  7.92493746e-02  1.38735101e-02  8.94531608e-04
  -7.76932836e-02 -3.37373465e-02 -5.55275492e-02 -4.98536155e-02
  -8.56425613e-03  5.64979836e-02  1.56179070e-04 -5.12619838e-02
  -2.16522440e-02  1.45630166e-02 -4.72084060e-02  6.10224828e-02
  -2.32777260e-02 -4.47802134e-02  5.11232093e-02 -1.09152347e-02
   5.05548790e-02 -2.27106661e-02  4.05436531e-02  3.41422930e-02
   6.18684217e-02 -4.19411547e-02 -8.11780989e-03  1.83855817e-02
  -1.78544745e-02  7.57014379e-02 -6.43470138e-02  6.81483746e-03
   8.21914524e-03 -4.84214388e-02  2.60906145e-02  4.23043892e-02
   1.21659562e-02 -7.39818588e-02  1.48758143e-02  7.29578212e-02
   7.83456042e-02 -3.97202484e-02 -4.35310751e-02  5.77548146e-03
  -5.14553860e-02  5.46199009e-02 -7.85990134e-02 -3.44028920e-02
  -1.49881840e-03 -4.11833264e-02  6.17026314e-02  1.55327544e-02
  -2.52392069e-02 -4.23048511e-02  6.34145811e-02 -4.39625680e-02
   6.34813979e-02  2.60353684e-02 -1.94245689e-02  4.03693169e-02
  -1.14999041e-02  1.46545991e-02 -3.16918977e-02 -5.01255691e-02]
 [ 5.20677790e-02 -4.41157855e-02  5.44262007e-02 -6.19411357e-02
   2.82474160e-02  7.71443546e-03  8.00696686e-02 -2.31265388e-02
   1.17825717e-02  2.00184882e-02  7.98252150e-02 -6.43171370e-04
  -4.14331406e-02  1.82665735e-02  2.17290744e-02 -2.85524763e-02
  -2.56018788e-02 -7.71903545e-02 -2.61446275e-02  1.17339790e-02
  -8.09121206e-02 -4.32648249e-02 -8.02779794e-02  7.38372281e-02
  -2.86737867e-02  4.47012559e-02  2.95374915e-02 -3.89821641e-02
   5.73507324e-02 -5.02327420e-02 -3.18414718e-03 -9.76729393e-03
  -5.65118119e-02  3.34897190e-02  1.98710859e-02 -5.86855412e-03
  -2.86034495e-03 -2.55977400e-02 -4.24181148e-02 -4.03635576e-02
  -2.41754651e-02  6.52010962e-02 -3.90937850e-02  5.83950058e-02
  -6.94380701e-03  6.35539740e-03  4.58053723e-02 -3.85985114e-02
   1.31935552e-02  4.58654538e-02 -5.70763126e-02 -4.67174500e-03
   5.11572137e-02 -3.37857306e-02 -3.48345228e-02 -8.73431563e-03
  -3.68178412e-02  6.11205325e-02  4.35189158e-03  4.17369604e-02
   7.52550587e-02  7.62465522e-02  2.88282782e-02  1.32565796e-02
   8.48896801e-04  6.98287711e-02 -3.97226289e-02  1.06492564e-02
   7.48772919e-03 -1.40895173e-02 -1.20054707e-02 -6.73026592e-02
   2.78209299e-02 -3.25540751e-02  5.31106070e-02 -4.90666926e-03
   2.25878507e-02 -5.94080687e-02  5.78007922e-02  1.92588195e-02
   7.59787485e-02  6.68533370e-02 -2.89317407e-02 -4.06828523e-02
   1.60249323e-02 -6.49128109e-02 -5.28423861e-02 -6.04868978e-02
  -6.29048198e-02 -2.70530842e-02  2.60590538e-02 -1.60677657e-02
   6.53658062e-03  3.36854458e-02 -7.18313605e-02 -5.03875464e-02
   2.26456299e-02  6.26984462e-02  2.37093121e-03  4.71924245e-03
  -2.94348262e-02 -4.77733165e-02 -1.02344081e-02  3.42304707e-02
   4.14437205e-02  9.16002691e-03  4.46348116e-02 -9.57692415e-03
   5.35661653e-02 -5.91266379e-02 -7.92917460e-02 -3.38449329e-03
  -5.70322424e-02 -1.88972503e-02  4.79921699e-04 -5.02523333e-02
   5.79872802e-02 -5.87520748e-02 -6.51325136e-02 -4.96761464e-02
  -3.26604918e-02 -6.45828992e-02  4.57157567e-02 -1.61176398e-02
  -1.92064904e-02 -2.44828090e-02  4.50000092e-02 -2.11872160e-02]
 [ 2.98003182e-02 -7.99356401e-03 -3.32109369e-02  8.08000639e-02
  -7.42944777e-02 -1.51686370e-04 -7.84368813e-02 -2.74141468e-02
  -1.69844255e-02 -3.64420973e-02  4.88203540e-02  6.51485398e-02
   1.17376745e-02 -5.02993055e-02  7.59134665e-02 -7.71286041e-02
  -5.62281162e-02 -4.50713485e-02  1.37266964e-02  3.64108086e-02
   3.71213779e-02  2.10219473e-02 -4.62375470e-02 -7.13884830e-03
  -4.00204957e-02  5.73460683e-02 -4.96522263e-02 -5.03943935e-02
   6.60770386e-03  7.04547986e-02  7.67015591e-02 -7.73215219e-02
  -2.68411525e-02  7.78790042e-02  1.19261444e-02 -6.54635653e-02
   7.60171041e-02  2.72605270e-02 -3.76651473e-02 -4.37375493e-02
  -2.46525817e-02 -3.82245667e-02 -5.53602725e-02  5.48496768e-02
  -4.99632433e-02  7.75989071e-02  5.66820279e-02 -6.21458888e-02
   1.76016465e-02 -3.90001312e-02  5.37860617e-02 -3.35130431e-02
  -4.29971628e-02 -4.07206789e-02 -5.95030785e-02  5.50545678e-02
   4.43762317e-02 -8.04614276e-03 -2.00009644e-02 -7.46263862e-02
   6.85461536e-02  1.15277171e-02 -2.65478902e-02 -3.64664830e-02
  -5.66326082e-03 -7.12110251e-02  7.66027346e-02 -7.86849111e-02
  -2.65412927e-02 -1.23061761e-02  5.27582690e-02 -4.19314280e-02
   4.69363108e-02 -1.36637688e-02  6.38538674e-02 -4.50151898e-02
   2.08358392e-02  6.06916919e-02  6.82698712e-02  4.08129394e-02
  -3.91148627e-02  3.87270376e-02 -5.26591986e-02  3.91885787e-02
  -4.31796387e-02  1.97209418e-04 -4.85268906e-02  2.41464376e-02
   9.30207223e-03  4.13064510e-02  2.34320611e-02  2.98151746e-02
  -2.40379125e-02 -6.36129305e-02 -8.07993785e-02 -1.19155645e-02
   5.53394109e-03 -6.77008182e-02  2.08021700e-02 -1.97124779e-02
   9.39303637e-03 -7.36170188e-02  7.59189352e-02  5.47706857e-02
   7.48950168e-02  8.53505731e-03  4.60854545e-02  5.56097105e-02
   5.71839735e-02 -2.39702277e-02  5.42575642e-02  6.70081899e-02
  -2.95416899e-02 -4.71722260e-02  3.00795808e-02  3.66853550e-02
   7.21556619e-02  1.51914358e-02  1.43146738e-02 -1.07504129e-02
   3.75682265e-02  7.52508715e-02  5.01750186e-02  6.38142005e-02
   2.45130062e-03 -4.14853133e-02 -3.85803133e-02 -4.29331921e-02]
 [ 3.59349474e-02 -1.94599479e-03  2.14999169e-02  6.41932711e-02
  -3.79726849e-02 -3.95906642e-02  4.27687019e-02  5.04939184e-02
   6.91161528e-02 -4.43334989e-02  5.51218539e-03 -3.08648944e-02
   9.42952931e-04  2.60643959e-02 -4.31527980e-02 -7.38169625e-02
  -1.29855499e-02  5.26575521e-02 -4.46458682e-02  6.49572089e-02
   1.73448324e-02  7.84595683e-02  2.01573372e-02 -8.02034363e-02
  -2.47062817e-02  2.89702639e-02  1.29282176e-02 -3.04374583e-02
   3.64323333e-02 -4.08602022e-02  1.51819736e-02 -7.55960643e-02
  -7.23757520e-02 -2.29433179e-03  4.58460972e-02  2.35098451e-02
  -7.49275982e-02  4.58368883e-02  4.83987406e-02  4.80985716e-02
   5.39480373e-02 -5.12501113e-02  1.57136619e-02  1.69553161e-02
  -6.83448389e-02 -5.90792000e-02  2.49202028e-02  4.77047637e-02
  -3.16904262e-02 -4.35705483e-03 -4.49257530e-02  5.04422188e-03
  -2.79023051e-02  4.59504873e-03 -6.69034570e-02 -1.71263665e-02
   6.27400801e-02 -5.96677661e-02  4.18035835e-02  6.58830777e-02
   4.04247642e-03 -5.40838316e-02  3.43932062e-02  5.77097759e-02
  -1.74481422e-03 -3.91277634e-02 -6.77798316e-02  2.46723443e-02
  -7.91230574e-02  7.87740573e-02  4.92277369e-02 -1.07665807e-02
   4.60241809e-02 -2.45070979e-02  7.59695470e-03 -5.40505648e-02
  -2.34864987e-02  6.52051046e-02  3.93707678e-02 -6.03070855e-02
   1.61779374e-02  2.56251395e-02 -1.44723952e-02 -4.56344411e-02
  -3.46929096e-02 -6.36846423e-02 -1.30389854e-02 -4.49924693e-02
   2.65843049e-02 -4.73757014e-02  7.40604922e-02  6.70259073e-02
   3.66218314e-02  2.59895548e-02 -2.20023617e-02  3.33329439e-02
   3.63949314e-02 -4.73823920e-02  6.78997561e-02 -7.45109543e-02
   6.65714070e-02 -1.02583468e-02  5.98877147e-02  7.68036172e-02
  -2.67272145e-02  5.58284894e-02 -5.41488081e-02  2.37623975e-02
  -5.43340296e-02 -8.01449120e-02 -1.76110119e-03 -6.59699589e-02
  -6.77317157e-02 -5.20726293e-02  1.51944906e-02 -1.94274113e-02
  -3.74111794e-02 -3.49791571e-02  4.00772691e-03  5.39809242e-02
   1.13426670e-02 -6.01213798e-02 -2.63391435e-03  6.81300238e-02
  -4.53140587e-03  7.38933608e-02 -6.78315610e-02 -2.57875845e-02]
 [-5.58769777e-02 -2.56791357e-02 -3.03920433e-02 -2.89648678e-02
  -5.73796369e-02 -6.65109679e-02  1.34983780e-02 -3.88310738e-02
  -7.88037851e-02 -8.19389448e-02  6.25211820e-02  1.96026228e-02
   2.63730269e-02 -2.62606144e-03 -1.31128845e-03  1.28449639e-02
   7.14480430e-02 -1.95340328e-02  2.66285166e-02  3.09665711e-03
   7.73699060e-02 -2.19949093e-02  3.60920019e-02  6.12920336e-02
   3.08152903e-02 -1.06149428e-02  4.90839779e-02 -5.29661365e-02
   4.49538901e-02  2.75621954e-02 -3.91389360e-04 -3.84973958e-02
   8.31670761e-02 -6.17393553e-02  4.59745601e-02  5.01639880e-02
  -4.67831194e-02  1.07066194e-02  5.92189431e-02 -2.58173533e-02
  -1.37139519e-03  1.07075609e-02  3.42824273e-02  1.85097679e-02
  -5.97297437e-02  1.91462338e-02  3.15459594e-02 -1.51452729e-02
   1.61794275e-02 -4.11845446e-02  4.21456657e-02 -2.64309552e-02
   5.36283106e-02 -1.02174375e-02  1.34145431e-02  2.64570378e-02
   6.29080534e-02 -9.80312079e-02 -2.90920418e-02  9.47844833e-02
   1.76857561e-02  5.06223366e-02  7.06587508e-02  1.44970929e-02
  -1.61574427e-02 -6.52351007e-02  1.23079596e-02 -4.07597125e-02
  -8.17184243e-03  5.03171235e-03  7.68479258e-02 -4.69749272e-02
  -2.35297441e-04 -3.44488118e-03  6.65851459e-02  3.70663181e-02
   6.97040930e-02  1.21852634e-02 -3.39304022e-02 -3.15724462e-02
  -2.52273809e-02 -6.30093813e-02 -4.34336476e-02  2.96224002e-02
   2.81410571e-02 -5.75281754e-02 -5.61009487e-03 -1.07122436e-02
   8.78165886e-02  5.41032031e-02 -3.96804437e-02  7.09514767e-02
   4.40707244e-02 -5.17838411e-02 -4.51653935e-02  4.55244407e-02
  -7.56389871e-02  8.50893334e-02 -8.09020251e-02 -5.20721823e-02
   6.91188499e-02  3.06435507e-02  6.22858964e-02  6.61085099e-02
   5.31463102e-02 -2.77884789e-02  7.20242783e-02 -6.73617721e-02
   1.33111700e-02 -5.00705689e-02 -3.78768854e-02 -2.64161695e-02
  -2.85858661e-03  6.69230744e-02  8.40355381e-02 -6.43397048e-02
  -1.03452206e-02  3.63414660e-02 -3.08341370e-03  1.34600308e-02
  -5.61516092e-04  4.66011688e-02  1.87078044e-02 -8.03798139e-02
  -8.38525072e-02  2.60873064e-02 -3.60333435e-02 -6.80311173e-02]
 [ 6.48558289e-02  3.66966077e-03 -3.21394354e-02 -6.85470626e-02
  -4.43258397e-02  9.71281677e-02 -4.01124097e-02  8.68032593e-03
   7.06108585e-02  5.33505194e-02 -5.38014881e-02  9.58324596e-02
  -5.68128712e-02  4.17810818e-03  8.32185894e-02  5.75342327e-02
   6.38404638e-02  2.38240119e-02 -1.40717849e-02  2.05955300e-02
  -1.77611113e-02  3.86234857e-02 -1.78449340e-02 -5.68413697e-02
  -2.49621607e-02 -1.06422767e-01  2.62889136e-02  6.54493086e-03
  -5.11285290e-02 -1.62733358e-03 -1.17143933e-02 -2.56858058e-02
   6.44126162e-02 -3.15074138e-02 -4.04415205e-02 -2.16127504e-02
   4.25699428e-02 -4.03670371e-02 -3.61268297e-02  9.46152881e-02
  -6.48813993e-02  4.01561186e-02 -2.66015716e-02  8.04631338e-02
  -5.31585589e-02 -1.04024056e-02  9.17507336e-02  2.16454044e-02
   6.33352920e-02 -2.98563275e-03  1.30974140e-03 -5.83782308e-02
   4.09201831e-02 -5.01204357e-02  5.06109744e-02 -6.72162175e-02
  -1.38618471e-02 -8.43357965e-02  7.87599757e-02  2.13239677e-02
   2.28349604e-02  3.65310200e-02  5.09301722e-02 -2.66113551e-03
  -3.93293798e-02  4.16705459e-02 -3.09231579e-02  4.56069484e-02
  -1.11635402e-02  5.94895855e-02 -5.60073927e-02  9.19534341e-02
   3.35595496e-02  1.03173912e-01 -2.19621174e-02 -4.52417471e-02
  -6.60193861e-02  1.18530653e-02  7.59306103e-02 -4.08250168e-02
   8.04909989e-02  1.56182358e-02 -4.15383205e-02 -3.28024440e-02
   7.63898566e-02 -5.91553561e-02 -1.43722361e-02  7.94956237e-02
   5.09495288e-02 -2.20619098e-04 -6.44757599e-02 -2.66541932e-02
  -1.51708033e-02 -1.30340848e-02  8.90814885e-02 -1.95502955e-02
  -2.05141623e-02 -4.35534120e-02 -6.66209459e-02  5.99907078e-02
   9.81678665e-02  3.73221934e-02  1.45632885e-02  5.69139943e-02
   6.06400743e-02  4.90685105e-02  2.24322528e-02 -1.12909287e-01
   7.95896724e-02 -3.46569419e-02  1.16861786e-03 -5.91487102e-02
  -7.56510124e-02 -1.91350542e-02 -6.63900524e-02  6.02629036e-02
   2.20771190e-02  4.08210866e-02  3.24646011e-03 -6.00160956e-02
   9.11253691e-02  1.59646310e-02 -1.81162395e-02  3.78719009e-02
  -5.39165623e-02 -2.06595939e-02 -2.07258873e-02 -5.46722859e-03]
 [ 8.05858597e-02  1.58555567e-01  1.77465871e-01 -1.89887166e-01
  -2.58520953e-02  4.79215980e-02 -7.15498254e-02 -6.94321617e-02
  -7.17831925e-02 -7.98106417e-02 -4.57560085e-02  2.48805925e-01
  -1.04414724e-01 -2.59882715e-02  3.73801924e-02 -6.45918101e-02
   1.57020718e-01 -3.17042321e-02 -4.80421036e-02  1.67121053e-01
  -6.92734942e-02  2.19015665e-02  2.49026194e-01 -2.48385128e-02
   8.69138837e-02 -1.64222926e-01 -1.15693986e-01  1.71598747e-01
  -1.03779584e-02  1.64282471e-01  9.28988457e-02 -2.47569591e-01
  -7.87586868e-02 -1.28818259e-01  1.49382101e-02 -3.63205634e-02
  -5.90057485e-02 -1.43686488e-01 -2.16295183e-01 -5.62094189e-02
   1.36475414e-02  1.18977532e-01 -2.94539537e-02  4.34179604e-02
   8.57610628e-03 -1.40897498e-01  2.14319929e-01  3.82675007e-02
  -3.84507291e-02  2.15164825e-01 -3.79459150e-02 -1.10614756e-02
  -1.19459699e-03 -4.33479771e-02  2.50821143e-01 -6.41688183e-02
   5.31493798e-02 -4.98904251e-02  6.40166104e-02  1.82766438e-01
  -7.41445720e-02 -6.80367425e-02 -4.83627729e-02  4.97081429e-02
   1.41334474e-01  1.70552611e-01  1.39647141e-01  6.52204677e-02
   2.00787769e-03 -4.56109643e-03  1.31585568e-01  1.34330750e-01
   2.08269969e-01  1.13358952e-01  1.43551882e-02 -1.42413735e-01
  -1.91347823e-02 -2.34946281e-01  1.58861816e-01 -2.19608381e-01
  -8.59288201e-02  1.42797098e-01 -8.97845775e-02  1.61073983e-01
   7.34209567e-02 -1.15161687e-02 -1.22025371e-01  6.32154346e-02
   2.39581719e-01 -2.70135224e-01 -1.38905644e-01 -3.58280912e-02
  -7.98131675e-02 -2.08765656e-01 -1.47092715e-02 -3.49476375e-02
  -1.70474529e-01  1.09915897e-01 -1.84060007e-01  5.63464276e-02
   3.77168804e-02  6.94740638e-02 -1.03057645e-01 -2.15589516e-02
   1.09236240e-02  1.56646430e-01  6.48654029e-02 -1.41773939e-01
   1.60012022e-02  3.50892097e-02  7.38476142e-02  3.22552621e-02
   3.94314416e-02  4.43021432e-02 -8.64290968e-02  6.65252432e-02
   1.28298283e-01  7.45129734e-02  7.62483776e-02 -3.31447646e-02
   1.23383209e-01 -1.92333937e-01 -4.05431800e-02 -1.46312729e-01
  -2.28734091e-01 -6.36814162e-02  3.90368327e-02  7.19805881e-02]
 [ 1.03108004e-01  1.85436383e-01  1.17878459e-01 -2.13512614e-01
   1.59655362e-02  1.01625852e-01 -7.66586512e-02  2.84320191e-02
  -2.03404389e-02 -8.87676775e-02 -1.29238993e-01  1.78905413e-01
   8.14577157e-04 -8.12543482e-02 -2.74109785e-02 -1.45340323e-01
   1.72771722e-01  9.78893787e-03 -6.13593496e-02  2.55113930e-01
  -1.43905804e-01  8.47620443e-02  2.40078196e-01 -1.27316281e-01
   1.07535064e-01 -1.23624213e-01 -7.95323476e-02  1.63685352e-01
  -3.75360437e-02  2.19475508e-01  1.11680016e-01 -2.28238449e-01
  -4.19009030e-02 -2.23278552e-01  6.72502071e-02  1.85796246e-02
  -6.24206364e-02 -8.24368000e-02 -2.34947264e-01  9.88394320e-02
   9.59514976e-02  1.57390058e-01  3.37409340e-02 -6.15139827e-02
   4.84791547e-02 -1.37372389e-01  1.98613673e-01 -5.93127534e-02
  -5.56695759e-02  1.79188102e-01  1.69717353e-02 -8.47353190e-02
  -7.46870637e-02  3.11062858e-02  1.17666304e-01 -3.08846845e-03
   6.84582209e-03 -7.23504201e-02  4.30358686e-02  1.24415152e-01
  -4.71020825e-02 -3.42258886e-02 -1.26446605e-01 -3.31951864e-02
   1.03161566e-01  5.42233773e-02  5.84722832e-02 -2.19470169e-03
   7.36410692e-02 -8.52648318e-02  9.84624475e-02  1.03223436e-01
   2.73106039e-01  1.69289902e-01  1.63084269e-02 -2.46073976e-01
   6.01459295e-02 -1.75716266e-01  2.79925257e-01 -1.54797718e-01
  -9.11411643e-03  1.72900662e-01 -1.52680248e-01  2.27501392e-01
   1.39698312e-01 -2.11063437e-02 -3.02136187e-02  1.63868126e-02
   1.56957075e-01 -2.54474998e-01 -1.56947225e-01 -4.98341992e-02
  -8.47427621e-02 -2.68689781e-01 -1.88121889e-02  3.95377874e-02
  -1.20927177e-01  1.63382530e-01 -2.78451294e-01  5.18530654e-03
   5.58428094e-02 -2.49259025e-02 -1.45291062e-02  1.01204425e-01
   2.34206319e-02  2.90058762e-01 -2.91300043e-02 -7.81138837e-02
  -7.73399025e-02  6.83772191e-02  1.22300893e-01  1.50900788e-03
  -2.47262288e-02 -6.96466044e-02 -9.89005156e-03  3.28405499e-02
   9.54384357e-02  4.52623442e-02  3.98444943e-02 -3.56729366e-02
   1.48533598e-01 -1.80591837e-01 -1.65202618e-01 -2.71434188e-01
  -1.05192497e-01 -1.78294435e-01 -3.56484018e-02  3.01548690e-02]
 [ 1.10098086e-02  2.82323454e-02  1.25062987e-01 -1.39481142e-01
   5.66919614e-03  1.16826721e-01 -4.19985615e-02 -2.20162030e-02
   4.60072532e-02 -1.39527932e-01 -1.65091559e-01  2.82634616e-01
   8.97257701e-02 -5.53562678e-02  6.74618259e-02  6.58476632e-03
   3.10153328e-02  1.86546519e-02 -1.26693130e-01  1.14640087e-01
  -1.13040820e-01  7.52620772e-02  2.17648283e-01 -4.45143413e-03
   8.77543911e-02  2.46279761e-02  5.03354408e-02  2.06537142e-01
   4.64461036e-02  1.24810122e-01 -1.06081506e-02 -1.59397900e-01
   1.15914829e-02 -8.78709853e-02 -3.91341709e-02  7.62938475e-03
   1.57540236e-02 -1.57889038e-01 -6.67231232e-02  2.48569176e-02
   9.81153548e-03 -1.48821864e-02 -1.00737125e-01 -3.95600349e-02
  -5.68525009e-02 -8.05397425e-03  1.78994328e-01 -5.34247421e-03
   6.07446302e-04  1.03233770e-01  6.28611892e-02 -4.76903953e-02
  -4.03406955e-02 -9.21286941e-02  2.04723239e-01  1.72818429e-03
   5.92142418e-02 -7.03517720e-02  9.33125988e-02  6.38755038e-02
   3.84410061e-02 -1.40004628e-03 -8.05808082e-02 -2.10267189e-03
   1.47626758e-01  1.31219059e-01 -5.05534485e-02 -7.89724737e-02
   2.60142516e-02  6.45265058e-02  6.55722171e-02  2.34877124e-01
   2.89957017e-01  1.42828509e-01  8.42489526e-02 -8.98873284e-02
   4.63520875e-03 -1.39433295e-01  1.34768903e-01 -8.45655501e-02
   1.60502031e-01  8.49756747e-02 -2.23375745e-02  1.25714168e-01
   7.95260370e-02 -8.69156197e-02 -1.39993414e-01 -5.51134758e-02
   2.45567113e-01 -2.02027664e-01 -1.53614551e-01  5.81971817e-02
  -9.02747437e-02 -2.30985165e-01  1.35163933e-01  3.21234986e-02
   1.13540761e-01  2.52226979e-01 -1.25490502e-01  8.54913965e-02
   9.05381516e-02  5.50484769e-02  8.58554244e-02  2.56510731e-02
   6.30342439e-02  2.76755929e-01 -8.58270098e-03 -9.69453901e-02
  -6.01794086e-02  6.08052388e-02  1.73752502e-01  2.29361653e-02
   2.53847241e-02 -8.62273350e-02  5.82026020e-02 -2.81748958e-02
   1.22240826e-01  5.36642820e-02 -1.08056013e-02  2.58479938e-02
   2.51490235e-01 -6.35728613e-02  1.31817041e-02 -2.78680354e-01
  -1.70426875e-01 -4.37959246e-02  8.11068714e-03  6.05469719e-02]
 [ 2.62015015e-02 -3.16230431e-02  6.18788674e-02 -1.06964603e-01
  -1.44885466e-01  2.53602043e-02 -6.47717938e-02  1.13450056e-02
  -3.41040664e-03 -4.49254364e-02 -1.31619364e-01  3.26286256e-01
   9.28606316e-02 -2.27004942e-02 -1.18891679e-01 -4.12629545e-02
   1.49037883e-01 -6.45365566e-02 -1.67373531e-02  1.95163727e-01
  -2.16935333e-02  3.10689234e-03  3.67037743e-01 -1.40122220e-01
  -3.79526652e-02 -5.06805740e-02  2.98939571e-02  2.59416670e-01
   5.97805679e-02  1.64704800e-01  1.18752211e-01 -1.55051097e-01
  -3.40082161e-02 -1.77364528e-01 -1.23084828e-01  2.47585145e-03
   1.23381140e-02 -1.20807782e-01 -1.23025060e-01 -5.88249788e-02
   2.04747215e-01 -6.30966127e-02 -1.14274599e-01  1.44522255e-02
   2.55182199e-02 -1.07854977e-01  2.92119086e-01 -7.16396496e-02
  -3.50508131e-02  2.45908037e-01  1.99515253e-01  5.30619472e-02
  -1.10811949e-01  2.31919177e-02  2.77770430e-01 -1.03696197e-01
   8.41837525e-02 -8.94856602e-02  4.07144353e-02  1.56205341e-01
  -1.95949003e-02  1.53893545e-01  4.11561504e-02 -2.05067582e-02
   2.59233564e-01  1.94872513e-01 -1.19623035e-01  7.11639528e-04
   1.11875363e-01 -7.32126832e-03  1.49039775e-01  1.18911251e-01
   2.81331927e-01  1.15958475e-01  6.80510849e-02 -2.42793873e-01
   2.11072341e-01 -2.14516446e-01  2.47486800e-01 -2.48214066e-01
   2.33205929e-01 -1.00906529e-01 -6.40998557e-02  2.02645108e-01
   2.80381255e-02 -8.70213658e-02 -1.48712382e-01 -6.56367093e-02
   2.34618396e-01 -2.29436383e-01 -1.61237448e-01  2.42874816e-01
  -1.07661113e-01 -2.32661203e-01  1.92829087e-01  4.74215969e-02
   8.47658366e-02  2.76969433e-01 -1.72784731e-01 -4.62442823e-02
   1.38273478e-01  8.37044269e-02  2.22019374e-01 -3.05242976e-03
  -4.72977720e-02  3.74450922e-01 -7.76201338e-02  2.77029593e-02
  -8.24456587e-02 -2.72328593e-02  7.90447444e-02 -1.45370826e-01
  -1.09119318e-01 -9.15236697e-02  1.00498982e-01  1.60149136e-03
   2.03539804e-01  1.26568168e-01  3.03629349e-04 -1.30466834e-01
   2.21210852e-01 -1.97536826e-01 -6.31531002e-03 -3.06908995e-01
  -1.05006814e-01 -8.30257758e-02 -2.41656154e-02 -1.07526779e-03]
 [ 1.03438996e-01 -1.44190311e-01  1.57316938e-01 -1.10913716e-01
  -2.07497571e-02  1.69986188e-02  3.67124304e-02 -8.27333257e-02
  -5.26391417e-02 -1.15590654e-01 -9.33249891e-02  1.64075136e-01
   2.05763966e-01  3.34286690e-02  1.43950239e-01 -1.63790267e-02
  -6.09263033e-02 -3.87881994e-02 -4.80942354e-02  1.76772013e-01
  -1.79352731e-01 -2.95610111e-02  1.91478893e-01 -3.51107657e-01
   1.58477530e-01  1.32153958e-01  9.43461359e-02  1.85485840e-01
   4.88874465e-02  8.09418410e-03  2.35705152e-02 -2.00227290e-01
   2.77018044e-02 -1.32737413e-01 -5.24511822e-02  7.86999092e-02
  -4.06271964e-02 -9.17638186e-03 -2.16750816e-01 -3.38692591e-02
  -1.94489006e-02 -1.59482941e-01 -9.37789455e-02 -1.76747981e-02
   9.83607993e-02 -8.80891904e-02  1.47165358e-01 -2.32654378e-01
  -1.39278114e-01  6.36517406e-02  1.42662227e-01 -6.74473569e-02
  -1.18921377e-01 -1.63671285e-01  3.20065282e-02 -1.37838982e-02
   7.28120357e-02  1.19992785e-01 -3.05962749e-02  1.62472114e-01
  -6.24210201e-02  2.75643617e-01 -1.80278093e-01 -1.43627405e-01
   4.81287926e-01  2.07386538e-01  2.12954402e-01  7.50992224e-02
  -1.32582292e-01 -3.87048088e-02  4.16482799e-03 -3.77022196e-03
   4.58911508e-01  1.75770223e-01  1.67986810e-01 -2.85079163e-02
   3.88209336e-02 -1.68423921e-01  2.26044998e-01 -1.40973255e-01
   1.90055430e-01 -4.91494918e-03 -5.28243072e-02  2.35737696e-01
  -7.76839480e-02 -6.65312037e-02  1.22848963e-02  1.07949160e-01
   2.33199611e-01  2.31012423e-02  7.70251527e-02  2.14269876e-01
  -1.46109790e-01 -1.42476350e-01 -4.48492616e-02 -1.34352103e-01
  -1.33694895e-02  1.41665503e-01 -2.02273577e-01 -2.26739198e-01
   1.04219720e-01  1.34574518e-01  2.60543108e-01  1.62539985e-02
   1.02729974e-02  3.19904357e-01 -1.82004660e-01  8.43130238e-03
   5.94460256e-02 -2.37003967e-01  1.62736341e-01 -2.19413787e-01
  -9.36658494e-03 -1.62924290e-01  3.32222395e-02 -7.64976367e-02
   2.04047665e-01  2.60517150e-01  4.05463874e-02 -2.00182304e-01
   1.98719516e-01 -2.54667163e-01 -5.98599948e-02 -2.85665423e-01
  -1.62248239e-01 -1.31568044e-01  1.72784831e-02 -5.18557243e-02]
 [ 1.94966614e-01 -1.88319519e-01  2.79345363e-01 -1.86902955e-01
   1.47762299e-01  1.07329831e-01  7.90098831e-02 -2.57237434e-01
  -1.17249243e-01  8.51278752e-02 -1.99219406e-01 -1.18814304e-03
   8.20888877e-02  1.31034240e-01  2.10986704e-01 -3.81840989e-02
  -2.58292463e-02 -3.43927704e-02  1.30694704e-02  5.63111454e-02
  -1.35488287e-01 -4.80147675e-02  1.43421724e-01 -6.74376711e-02
   2.42249131e-01  3.22530806e-01 -2.96411198e-02  1.82103038e-01
  -1.85129959e-02 -4.60173897e-02  9.32831839e-02 -7.56673515e-02
   3.00920345e-02 -1.00080900e-01  4.21073567e-03 -2.43461039e-02
  -4.90124114e-02 -7.80181736e-02 -2.34692693e-01  1.76693246e-01
  -1.35170102e-01 -1.94945335e-01  1.13568172e-01  4.42004986e-02
   2.05115601e-01 -3.11833583e-02  5.20799123e-03 -1.91336304e-01
  -7.40745962e-02  1.27745613e-01  7.29235932e-02 -5.47081232e-02
   2.16318592e-02 -3.79532203e-02 -4.63963263e-02  1.28460079e-01
   1.73416287e-01  1.01370506e-01  1.29747735e-02  2.55773544e-01
  -3.13492911e-03  2.35696211e-01 -3.02458405e-01 -3.20843817e-03
   1.56522974e-01  2.80408859e-01  2.54928797e-01  8.98121893e-02
  -3.77572477e-02  6.97614700e-02 -6.06463253e-02 -7.26172850e-02
   1.65297255e-01  1.86242253e-01  9.66951847e-02  1.08594559e-01
  -1.58539414e-01 -2.43519992e-01  5.05018711e-01 -1.54036190e-02
   2.00370178e-01 -4.04001996e-02 -9.98138785e-02  1.79802969e-01
  -2.83302683e-02 -4.62800711e-02 -9.73862559e-02  3.14304888e-01
  -4.72549722e-02  4.82823029e-02 -9.30352602e-03 -2.63936855e-02
  -6.36091828e-02 -6.60089701e-02 -1.73719659e-01 -2.65750270e-02
  -1.89721912e-01  2.61319160e-01 -2.16443330e-01 -2.30654731e-01
   1.11141697e-01  7.65316263e-02  1.93043277e-01  4.76935655e-02
   2.15366669e-02  1.24130562e-01 -1.57591656e-01  1.22540906e-01
   3.46532762e-02 -2.01591253e-01  1.82776537e-03 -1.65959612e-01
  -2.51407307e-02 -1.16908595e-01 -4.50360551e-02 -5.59545755e-02
   1.41735999e-02  2.94227511e-01  9.83413830e-02  5.80812395e-02
   2.25745708e-01 -1.44159466e-01 -4.27301303e-02 -1.02778278e-01
   9.32046697e-02  2.12806482e-02  6.56764582e-02 -8.16278532e-02]
 [ 3.85381222e-01  1.95338968e-02  2.51548588e-01 -1.85332000e-01
   1.00043565e-01  2.31888726e-01  1.47813469e-01 -1.23826198e-01
  -6.25365824e-02 -4.47066575e-02 -2.70589769e-01  1.72393247e-01
   1.57199994e-01  5.76265268e-02  1.80614918e-01 -1.00477412e-01
   8.83542150e-02 -1.91220209e-01 -2.22059693e-02  1.86972797e-01
  -2.20714822e-01  1.26118198e-01  1.03590190e-01 -1.25327840e-01
   2.32149348e-01  2.89890260e-01  1.16860792e-02  1.04420967e-01
   4.16361839e-02  1.06278241e-01  1.13287166e-01 -2.09880307e-01
  -2.86868215e-02 -1.15637071e-01  9.69802737e-02  5.79129830e-02
  -9.95508954e-03 -1.25621721e-01 -2.30121508e-01  1.75177634e-01
  -4.40557450e-02 -4.11122106e-02 -2.42945492e-01 -7.78567642e-02
   1.08504571e-01 -7.95388594e-02  1.99001223e-01 -2.77936697e-01
  -4.85466188e-03  3.30359995e-01  2.52175748e-01 -8.14763382e-02
  -1.02337077e-01 -1.39316574e-01  3.27715755e-01  1.50865823e-01
   1.27626196e-01  1.60677925e-01  1.27604425e-01  2.05534607e-01
  -5.48561215e-02  7.10693523e-02 -2.93442607e-01 -4.97580357e-02
   1.80185616e-01  4.24926639e-01  1.35820016e-01  1.65722519e-01
   9.86824930e-02 -1.71804782e-02  1.84805036e-01 -2.45560724e-02
   3.89573574e-01  1.77580491e-01  2.31288940e-01 -6.86509982e-02
   4.02865075e-02 -2.19896227e-01  5.61615527e-01 -1.96387455e-01
   6.70893043e-02  1.96958985e-02 -1.28792999e-02  3.51955265e-01
  -5.58609851e-02  4.92480956e-02 -7.89525881e-02  3.92434388e-01
   1.28751650e-01 -4.30580229e-02 -2.10966349e-01  2.21391879e-02
  -1.10751227e-01 -9.95687693e-02 -5.08289970e-02 -3.20567563e-02
  -4.47094172e-01  2.64018327e-01 -2.94304729e-01 -2.32895210e-01
   1.24729402e-01  4.64753479e-01  3.13902140e-01 -5.90125695e-02
   5.56404032e-02  2.83720046e-01 -2.94708997e-01  1.25010341e-01
  -6.78865761e-02 -2.34959662e-01  1.97751746e-02 -1.22273467e-01
   5.52421324e-02  1.16773276e-02 -1.26117945e-01 -3.32947522e-02
   7.41913021e-02  4.56584483e-01  3.10860395e-01  7.99084976e-02
   3.22899818e-01 -2.25897983e-01 -3.82612832e-02 -1.10306837e-01
   7.48624094e-03  2.80973744e-02  8.22096318e-02 -7.40967318e-02]
 [ 2.74318069e-01 -2.40463130e-02  1.28245562e-01 -1.61562666e-01
  -1.29412428e-01  3.93094450e-01  9.68913883e-02 -1.46708339e-01
  -1.44066036e-01  2.78824884e-02 -2.75669713e-02  1.54295146e-01
   1.49092555e-01  1.32856876e-01 -4.28324193e-02 -1.68633473e-03
   1.23067521e-01 -6.15047924e-02 -3.72378342e-02  3.05388644e-02
  -2.39099309e-01 -8.37585852e-02 -3.41928415e-02 -2.89213806e-01
  -9.45770070e-02  2.00721890e-01  4.53117006e-02  2.29150385e-01
  -6.14179969e-02  2.01132655e-01 -5.00576906e-02 -1.34513766e-01
   7.83110708e-02 -2.36359797e-02 -3.57176065e-02 -4.46625501e-02
  -1.56372234e-01 -2.38733031e-02 -2.05254078e-01  6.23566322e-02
  -4.34412509e-02 -5.68623655e-02 -3.99646580e-01 -6.25773594e-02
  -1.87244922e-01 -1.43647879e-01  5.27864024e-02 -1.11070521e-01
   2.43420720e-01  4.29737836e-01  2.96405524e-01 -1.30850315e-01
   1.54237188e-02 -8.23809355e-02  1.46734685e-01  2.02716440e-01
   8.34240988e-02 -1.19219394e-02 -2.22613141e-02  8.94647278e-03
   1.02714719e-02  7.41115808e-02 -1.59525216e-01 -1.44636661e-01
   2.20225841e-01  2.41077393e-01 -9.13936794e-02  7.13513568e-02
   8.90895501e-02 -9.42029152e-03  1.60971269e-01  6.49513006e-02
   6.29435629e-02  1.84974387e-01  1.44857123e-01 -1.96588174e-01
   4.80673276e-02 -1.76194251e-01  6.60838604e-01 -7.15298429e-02
  -1.94087476e-02  1.51159376e-01  1.52279614e-02  2.89824814e-01
   2.55190134e-02 -1.37717620e-01 -2.66780779e-02  2.25658059e-01
   1.47087527e-02 -9.08552855e-02 -1.22788817e-01  6.72362670e-02
  -2.57398456e-01 -1.90623850e-01  3.37760821e-02 -1.35832265e-01
  -2.23528892e-02  4.34562154e-02 -3.05494368e-01 -2.55509658e-04
   1.07677795e-01  2.17032716e-01  1.45773724e-01  9.72763523e-02
  -2.27079149e-02  3.22208852e-02 -2.59702699e-03  1.58352822e-01
  -4.78065237e-02  1.48638489e-03 -1.79434139e-02 -6.95334673e-02
   5.90475313e-02  1.18696451e-01 -4.87115234e-02  4.67013451e-04
   2.11729020e-01  1.58837616e-01  2.34698445e-01  1.45586237e-01
   1.72203884e-01  6.77041858e-02 -1.30803049e-01 -7.33381929e-03
  -1.37753468e-02  6.36414811e-02  9.05219987e-02  3.19298357e-02]
 [ 1.15937732e-01 -4.49152701e-02 -2.14409426e-01  9.43146273e-02
  -1.48745283e-01  3.40671659e-01  1.71821669e-01  1.67465299e-01
  -2.31876448e-01 -4.19269130e-02  1.50744259e-01 -5.06561659e-02
  -5.29744625e-02  1.33909479e-01  2.05784053e-01 -4.13801558e-02
   8.59691799e-02  2.33236536e-01 -6.83751553e-02  8.94335359e-02
   2.65615255e-01 -1.81560516e-02  1.25824124e-01  1.53636158e-01
  -1.77786961e-01  7.92422295e-02  8.17687511e-02  3.40039104e-01
   2.73316711e-01 -1.85003623e-01 -8.18740204e-02  5.27237095e-02
  -6.03481829e-02  1.11723438e-01  2.94779651e-02 -2.38535795e-02
  -5.37022133e-04 -2.92766211e-03 -1.98222585e-02 -4.50590216e-02
  -2.29832873e-01 -1.85476378e-01 -9.09872800e-02 -1.64704159e-01
  -1.53212994e-01 -1.28272429e-01 -4.13799509e-02  7.04311952e-02
   1.14585280e-01 -7.27058873e-02  2.48813644e-01 -1.47952795e-01
   1.89298019e-02 -1.57567129e-01 -1.88673407e-01 -4.67581712e-02
  -7.69997090e-02  1.24520838e-01  2.39350244e-01 -2.42835075e-01
  -7.37987179e-03 -1.63148329e-01 -3.07224435e-03 -9.69613269e-02
   7.26466477e-02 -1.51645839e-01 -1.37980610e-01  1.28789991e-01
   1.31480917e-01  8.74884427e-02  2.14862078e-01 -2.56052852e-01
  -7.52905905e-02 -1.44956019e-02  3.63805816e-02 -1.38853997e-01
  -1.45267412e-01  7.35447928e-02  7.38789678e-01  8.69602337e-03
   5.15695103e-03 -1.53641060e-01 -4.64786328e-02  3.55313043e-03
  -2.12226242e-01  6.19679131e-02 -8.62154439e-02  1.10885408e-02
  -2.57332534e-01 -1.62439451e-01  2.60666430e-01  1.17657267e-01
  -9.37659293e-02 -3.99459200e-03 -2.47491926e-01 -1.65790617e-02
   1.19949289e-01 -7.98870772e-02 -2.60600895e-01 -8.40067714e-02
  -8.35151672e-02  4.55396064e-02  2.10050255e-01  9.18726772e-02
  -3.79785895e-04  2.64564417e-02  8.51905495e-02  2.07130715e-01
  -4.36849147e-02  4.95377481e-02  4.90090065e-02 -8.51988494e-02
  -1.69769613e-04 -1.12520881e-01  2.73612648e-01 -1.18998460e-01
  -6.02805987e-02 -2.36426830e-01  1.79774672e-01  1.57414615e-01
  -5.63450716e-02  1.14531733e-01 -3.48201282e-02  1.73711148e-03
  -1.19080342e-01 -3.32719870e-02 -8.76315981e-02  1.17010199e-01]
 [ 3.55542898e-02  3.25244904e-01 -4.09996621e-02 -1.07104562e-01
  -1.10155493e-01  3.86481047e-01 -3.99620235e-02 -8.95993710e-02
  -2.88329959e-01 -7.12125897e-02 -8.09784979e-03  1.19546518e-01
  -1.58201605e-01 -6.15452826e-01  1.52514353e-01  1.18932023e-03
   4.76908982e-01 -1.53285593e-01 -3.86241265e-03  2.67986745e-01
   1.17688522e-01  1.70646802e-01  1.12304427e-01  1.81288153e-01
  -4.75090407e-02 -1.82012513e-01 -1.25399709e-01  2.72365391e-01
   2.66352296e-01 -1.13275545e-02  9.28338245e-02 -1.11778684e-01
  -3.29218805e-02 -2.06620440e-01  1.36871859e-01  6.53680339e-02
  -1.07608303e-01 -6.37355596e-02 -1.16393775e-01  2.92155564e-01
   3.50457095e-02  2.45760866e-02 -6.33985028e-02 -7.75085166e-02
  -7.43640736e-02 -1.44621089e-01  1.54407665e-01  2.08520442e-01
   1.90969452e-01  1.21711835e-01 -6.82389662e-02  8.18289891e-02
  -6.14026859e-02  7.28396699e-02  3.54911178e-01 -4.07045819e-02
  -3.60961966e-02  5.41530363e-02  8.68566111e-02  2.90479548e-02
  -2.63264447e-01 -9.37519521e-02  1.03831165e-01 -1.24789774e-01
   2.28159856e-02 -2.07323078e-02 -1.29389584e-01  1.69624224e-01
   2.68547803e-01  2.39366721e-02  2.43902117e-01 -1.20386921e-01
   3.40575695e-01  1.08366944e-01 -4.79031261e-03 -2.42691651e-01
  -1.00735508e-01 -2.34387040e-01  7.14192212e-01 -1.68796331e-01
  -2.88288444e-02 -1.26823321e-01 -2.15523802e-02  1.20726839e-01
  -2.56689993e-04  5.73969521e-02 -7.04624578e-02  1.99732762e-02
  -1.48771286e-01 -3.07531685e-01 -1.01450337e-02 -7.97305815e-03
  -1.19832091e-01 -1.07761554e-01  9.24682841e-02 -1.01967067e-01
  -1.24307506e-01  1.94015503e-01 -2.51466781e-01 -1.16820171e-01
   2.34860212e-01  1.97546229e-01  1.15450941e-01  8.02702531e-02
  -7.98359066e-02  5.23317084e-02  1.55305967e-01 -3.49801034e-02
  -6.51433691e-02  9.20435488e-02  2.84982711e-01  3.09658963e-02
  -1.49600883e-03 -1.08269565e-01  1.57850068e-02 -1.89528614e-01
  -2.31295556e-01  5.49858846e-02  1.10623509e-01 -2.27541387e-01
   2.04415977e-01 -3.45594376e-01  9.12914425e-03 -1.37850523e-01
  -1.55539081e-01 -2.03478456e-01 -4.98609385e-03  1.76354542e-01]
 [ 1.59064844e-01  2.32060254e-01  2.32754275e-01 -1.15276083e-01
   9.84392986e-02  3.26531857e-01  8.93549025e-02 -2.52460867e-01
  -3.23425859e-01  1.19390249e-01 -3.02636791e-02  1.97540745e-01
  -1.91447213e-01 -3.42404336e-01  1.87375382e-01  2.89274931e-01
   1.94394439e-01 -8.08920786e-02  1.58215873e-02 -3.14799994e-02
  -2.25662798e-01  2.06221879e-01 -2.67298043e-01  2.18660027e-01
   8.15915689e-02 -5.21852672e-02 -2.81122208e-01  2.54609674e-01
  -4.85617621e-03  1.13471961e-02  2.20607474e-01 -7.12620467e-02
   2.05625519e-02 -1.44585073e-01 -5.49698658e-02  1.03849042e-02
  -4.94920462e-02 -8.87578353e-02 -1.73505172e-01  1.64610416e-01
   2.96203107e-01  8.30255374e-02 -2.58874763e-02 -8.28671381e-02
   2.31640503e-01 -6.07950091e-02  6.33641258e-02  2.32650489e-01
  -2.85821706e-02  3.61086041e-01  4.93372269e-02  2.14702919e-01
   1.67222023e-01  1.26485944e-01  2.37826303e-01  2.17430249e-01
   9.91561711e-02  6.64479798e-03 -7.63520896e-02  3.75416309e-01
  -1.39241174e-01 -2.85099804e-01  2.19502911e-01 -1.29435420e-01
   8.82777497e-02  5.49255982e-02  1.95933238e-01 -1.01958580e-01
  -7.17049688e-02 -1.05601914e-01 -6.95998371e-02  1.66918531e-01
   2.41198108e-01  2.58042514e-01 -1.10009640e-01 -1.42504647e-01
  -8.38692486e-03 -1.21786572e-01  4.41001862e-01  1.73835419e-02
  -8.90734121e-02  9.72882956e-02  9.91554856e-02  2.75708318e-01
   5.69824204e-02 -1.96542084e-01 -1.46384403e-01  1.63174614e-01
  -1.71151552e-02 -2.46183172e-01 -2.48725265e-01 -1.45407692e-02
  -1.73015669e-01 -8.06959346e-02  1.58625871e-01 -4.18943539e-02
  -2.64137357e-01  3.58731329e-01 -1.45738944e-01  1.09309964e-01
   2.51988769e-01  3.28435719e-01  1.45105928e-01  1.34790652e-02
  -4.50952537e-02  1.58349648e-01 -6.17348915e-03 -2.18232766e-01
  -5.68025336e-02  1.09353982e-01 -3.69328074e-02  1.65920585e-01
   7.24790245e-02 -5.52085005e-02 -9.96691436e-02 -2.08210051e-01
  -8.22502822e-02  3.22786033e-01  3.26581687e-01 -1.69711411e-01
   2.35044405e-01 -1.88271567e-01  1.11766882e-01  5.40624652e-03
  -7.63233006e-02  7.08869472e-02 -1.62306819e-02 -9.32371691e-02]
 [ 1.75094813e-01  4.88652959e-02  2.94764698e-01 -4.83800285e-02
   1.88453227e-01  3.28352898e-01  1.07162833e-01 -8.73538256e-02
  -5.30159771e-02  4.89745215e-02 -1.02235854e-01  3.12118232e-01
   1.49417846e-02 -1.97758570e-01  1.49725974e-01  1.48234591e-01
   1.06169127e-01 -1.85855597e-01 -3.30131873e-02  9.01888385e-02
  -2.24415034e-01  1.69531688e-01 -1.41955480e-01  2.27781773e-01
   2.55220622e-01  1.03838898e-01 -1.13529988e-01  2.49464974e-01
  -1.63781911e-01  1.63793012e-01  2.66022712e-01 -1.79177254e-01
   9.34384689e-02 -1.07550301e-01  8.94642547e-02 -1.70346852e-02
  -8.00848827e-02 -1.03485338e-01 -3.93622905e-01  1.18073374e-01
   1.40299901e-01  1.81916967e-01 -2.23384753e-01  2.87422165e-02
   2.51726061e-01 -1.29769966e-01  1.19890213e-01 -4.40640375e-02
   9.38026309e-02  3.84211034e-01 -1.10277422e-01  2.12345392e-01
   5.07193198e-03  1.32934097e-03  3.08471024e-01  1.23639725e-01
   9.16709006e-02  7.78219756e-03 -6.41390309e-02  4.60336447e-01
  -1.72572255e-01 -2.38567799e-01  1.42881453e-01 -2.15803400e-01
   4.90523130e-02  2.22820416e-01  2.67036647e-01  1.96007118e-02
   4.79193293e-02 -4.45269272e-02  5.28944433e-02  1.76004156e-01
   2.43485734e-01  2.39239782e-01 -6.98892726e-03 -2.30943829e-01
  -7.14660585e-02 -2.03379720e-01  2.46611580e-01  4.66989391e-02
  -7.33156875e-02  1.08823575e-01  2.52310365e-01  2.42202789e-01
   8.06190446e-02 -1.60383657e-01 -1.09809838e-01  3.95568103e-01
   7.17605576e-02 -2.69886971e-01 -1.44394830e-01 -1.20781884e-01
  -1.73324645e-01 -1.22853637e-01  2.87466854e-01 -1.28885001e-01
  -3.05957109e-01  3.50960374e-01 -2.07510903e-01  3.34204733e-01
   2.65469223e-01  5.31276643e-01  1.42839074e-01  4.21011820e-03
  -3.41961868e-02  5.87242283e-02 -6.06281199e-02 -1.31636560e-01
  -3.12629007e-02 -1.88851878e-01  1.53232098e-01  1.54812127e-01
   4.91229026e-03  3.73647846e-02 -2.50278264e-02 -2.42572889e-01
  -4.85923663e-02  2.85067976e-01  3.35117012e-01 -1.23067964e-02
   2.47048497e-01 -2.93810815e-01  1.99780893e-02 -6.73598722e-02
  -1.84448853e-01  1.80058569e-01 -9.93458629e-02 -1.12851739e-01]
 [ 9.16662440e-03  9.99092907e-02  2.46949032e-01 -1.52980998e-01
  -4.75017689e-02  3.58036369e-01  5.11408560e-02  7.73483962e-02
  -1.24725357e-01 -1.14480995e-01 -1.48785189e-01  2.55730450e-01
   1.89333767e-01 -1.55160949e-01 -2.02737935e-02 -1.48776725e-01
  -3.20814457e-03 -1.87137157e-01 -1.40342265e-01  2.57612973e-01
  -2.22719349e-02  3.68147008e-02 -1.14492372e-01  2.94997822e-02
   2.12680772e-01  2.32650459e-01 -1.91896670e-02  9.39624831e-02
  -5.11783883e-02  2.80037433e-01  1.67209715e-01 -1.47552580e-01
  -1.46290287e-02 -2.34645575e-01  6.56137392e-02  2.43394598e-02
   6.77225646e-03 -1.25299573e-01 -2.78847307e-01 -7.10177347e-02
   1.23893484e-01 -8.72216150e-02 -1.53208971e-01  4.29081284e-02
  -5.77942207e-02 -5.91820553e-02  2.78509051e-01  1.72789264e-02
   4.25183661e-02  4.05459553e-01 -1.75811142e-01  1.83103234e-01
  -2.35322282e-01 -2.82211751e-01  2.87877023e-01 -1.00614794e-01
   2.98312455e-02  5.71358837e-02  2.60653757e-02  3.59867215e-01
  -7.55423903e-02 -2.45910808e-02  2.44220570e-02 -9.58231166e-02
   1.97193742e-01  2.64598966e-01  2.00577885e-01  2.01202303e-01
   1.44801050e-01 -1.02733634e-01  1.16141073e-01  9.42304209e-02
   4.10970628e-01  3.55554581e-01  2.71683365e-01 -4.04181004e-01
